<?xml version="1.0"?>
<opencv_storage>
<cascade>
  <stageType>BOOST</stageType>
  <featureType>HAAR</featureType>
  <height>32</height>
  <width>32</width>
  <stageParams>
    <boostType>GAB</boostType>
    <minHitRate>9.9000000953674316e-01</minHitRate>
    <maxFalseAlarm>5.0000000000000000e-01</maxFalseAlarm>
    <weightTrimRate>9.4999999999999996e-01</weightTrimRate>
    <maxDepth>1</maxDepth>
    <maxWeakCount>100</maxWeakCount></stageParams>
  <featureParams>
    <maxCatCount>0</maxCatCount>
    <featSize>1</featSize>
    <mode>ALL</mode></featureParams>
  <stageNum>12</stageNum>
  <stages>
    <!-- stage 0 -->
    <_>
      <maxWeakCount>4</maxWeakCount>
      <stageThreshold>-1.8642057478427887e-01</stageThreshold>
      <weakClassifiers>
        <_>
          <internalNodes>
            0 -1 22 -7.6830759644508362e-02</internalNodes>
          <leafValues>
            -8.2325583696365356e-01 4.8025476932525635e-01</leafValues></_>
        <_>
          <internalNodes>
            0 -1 108 5.4259613156318665e-02</internalNodes>
          <leafValues>
            2.0591311156749725e-01 -8.7037354707717896e-01</leafValues></_>
        <_>
          <internalNodes>
            0 -1 73 4.5977462083101273e-02</internalNodes>
          <leafValues>
            2.4179688096046448e-01 -8.8469773530960083e-01</leafValues></_>
        <_>
          <internalNodes>
            0 -1 56 -2.7920216321945190e-02</internalNodes>
          <leafValues>
            -7.9442006349563599e-01 1.8912523984909058e-01</leafValues></_></weakClassifiers></_>
    <!-- stage 1 -->
    <_>
      <maxWeakCount>8</maxWeakCount>
      <stageThreshold>-2.7749595046043396e-01</stageThreshold>
      <weakClassifiers>
        <_>
          <internalNodes>
            0 -1 101 -5.9379160404205322e-02</internalNodes>
          <leafValues>
            -7.5641024112701416e-01 3.7677726149559021e-01</leafValues></_>
        <_>
          <internalNodes>
            0 -1 59 -1.6666900366544724e-02</internalNodes>
          <leafValues>
            -7.8511768579483032e-01 1.7751809954643250e-01</leafValues></_>
        <_>
          <internalNodes>
            0 -1 90 -1.4007478021085262e-02</internalNodes>
          <leafValues>
            -6.2145686149597168e-01 2.1897661685943604e-01</leafValues></_>
        <_>
          <internalNodes>
            0 -1 72 4.0073655545711517e-02</internalNodes>
          <leafValues>
            1.9059512019157410e-01 -8.3906114101409912e-01</leafValues></_>
        <_>
          <internalNodes>
            0 -1 55 4.2075023055076599e-02</internalNodes>
          <leafValues>
            1.6080468893051147e-01 -8.2531368732452393e-01</leafValues></_>
        <_>
          <internalNodes>
            0 -1 18 6.9045783020555973e-03</internalNodes>
          <leafValues>
            -2.5898057222366333e-01 6.7126810550689697e-01</leafValues></_>
        <_>
          <internalNodes>
            0 -1 4 -1.1222939938306808e-02</internalNodes>
          <leafValues>
            7.2120815515518188e-01 -2.0697247982025146e-01</leafValues></_>
        <_>
          <internalNodes>
            0 -1 62 1.0480710119009018e-01</internalNodes>
          <leafValues>
            1.9697281718254089e-01 -8.6744487285614014e-01</leafValues></_></weakClassifiers></_>
    <!-- stage 2 -->
    <_>
      <maxWeakCount>10</maxWeakCount>
      <stageThreshold>-7.1251285076141357e-01</stageThreshold>
      <weakClassifiers>
        <_>
          <internalNodes>
            0 -1 61 6.5510705113410950e-02</internalNodes>
          <leafValues>
            3.6496350169181824e-01 -5.6179773807525635e-01</leafValues></_>
        <_>
          <internalNodes>
            0 -1 60 -3.7277914583683014e-02</internalNodes>
          <leafValues>
            -6.7328906059265137e-01 1.7468057572841644e-01</leafValues></_>
        <_>
          <internalNodes>
            0 -1 128 -6.1429291963577271e-02</internalNodes>
          <leafValues>
            -7.4538767337799072e-01 1.3229249417781830e-01</leafValues></_>
        <_>
          <internalNodes>
            0 -1 47 -5.2521057426929474e-02</internalNodes>
          <leafValues>
            -9.1407954692840576e-01 1.1801526695489883e-01</leafValues></_>
        <_>
          <internalNodes>
            0 -1 20 -2.0109802484512329e-02</internalNodes>
          <leafValues>
            6.0473662614822388e-01 -2.1535384654998779e-01</leafValues></_>
        <_>
          <internalNodes>
            0 -1 83 1.7354659736156464e-02</internalNodes>
          <leafValues>
            1.2813889980316162e-01 -7.3900735378265381e-01</leafValues></_>
        <_>
          <internalNodes>
            0 -1 89 -1.0041531175374985e-02</internalNodes>
          <leafValues>
            -6.6131508350372314e-01 1.4730702340602875e-01</leafValues></_>
        <_>
          <internalNodes>
            0 -1 67 3.5690227523446083e-03</internalNodes>
          <leafValues>
            -1.4954175055027008e-01 7.6819360256195068e-01</leafValues></_>
        <_>
          <internalNodes>
            0 -1 54 5.6996885687112808e-03</internalNodes>
          <leafValues>
            1.6640080511569977e-01 -6.4450192451477051e-01</leafValues></_>
        <_>
          <internalNodes>
            0 -1 77 3.2074954360723495e-02</internalNodes>
          <leafValues>
            1.3570010662078857e-01 -8.5534018278121948e-01</leafValues></_></weakClassifiers></_>
    <!-- stage 3 -->
    <_>
      <maxWeakCount>11</maxWeakCount>
      <stageThreshold>-7.7746438980102539e-01</stageThreshold>
      <weakClassifiers>
        <_>
          <internalNodes>
            0 -1 23 -2.2859074175357819e-02</internalNodes>
          <leafValues>
            -6.0227274894714355e-01 3.7135922908782959e-01</leafValues></_>
        <_>
          <internalNodes>
            0 -1 50 4.8877038061618805e-03</internalNodes>
          <leafValues>
            2.0328052341938019e-01 -5.2949535846710205e-01</leafValues></_>
        <_>
          <internalNodes>
            0 -1 115 2.2202399559319019e-03</internalNodes>
          <leafValues>
            -1.7708817124366760e-01 5.9896284341812134e-01</leafValues></_>
        <_>
          <internalNodes>
            0 -1 44 -8.8269067928195000e-03</internalNodes>
          <leafValues>
            6.7948246002197266e-01 -1.4586026966571808e-01</leafValues></_>
        <_>
          <internalNodes>
            0 -1 25 -3.3027110621333122e-03</internalNodes>
          <leafValues>
            6.5368759632110596e-01 -1.5949085354804993e-01</leafValues></_>
        <_>
          <internalNodes>
            0 -1 30 3.2573929056525230e-03</internalNodes>
          <leafValues>
            -1.8622256815433502e-01 5.9287518262863159e-01</leafValues></_>
        <_>
          <internalNodes>
            0 -1 98 -2.6657450944185257e-02</internalNodes>
          <leafValues>
            -8.6662936210632324e-01 1.4082418382167816e-01</leafValues></_>
        <_>
          <internalNodes>
            0 -1 34 6.6845662891864777e-02</internalNodes>
          <leafValues>
            1.3499625027179718e-01 -8.0785661935806274e-01</leafValues></_>
        <_>
          <internalNodes>
            0 -1 45 -1.2066425755620003e-02</internalNodes>
          <leafValues>
            5.8353781700134277e-01 -2.3032076656818390e-01</leafValues></_>
        <_>
          <internalNodes>
            0 -1 111 4.2850755155086517e-02</internalNodes>
          <leafValues>
            1.8996949493885040e-01 -8.2750874757766724e-01</leafValues></_>
        <_>
          <internalNodes>
            0 -1 134 -8.7687615305185318e-03</internalNodes>
          <leafValues>
            7.9557740688323975e-01 -1.8613554537296295e-01</leafValues></_></weakClassifiers></_>
    <!-- stage 4 -->
    <_>
      <maxWeakCount>11</maxWeakCount>
      <stageThreshold>-3.8450285792350769e-01</stageThreshold>
      <weakClassifiers>
        <_>
          <internalNodes>
            0 -1 82 -1.2586724013090134e-02</internalNodes>
          <leafValues>
            -6.8253970146179199e-01 3.2723110914230347e-01</leafValues></_>
        <_>
          <internalNodes>
            0 -1 28 -1.7108738422393799e-02</internalNodes>
          <leafValues>
            -5.9856790304183960e-01 1.5879121422767639e-01</leafValues></_>
        <_>
          <internalNodes>
            0 -1 11 -8.5949990898370743e-03</internalNodes>
          <leafValues>
            8.4762895107269287e-01 -1.2203390896320343e-01</leafValues></_>
        <_>
          <internalNodes>
            0 -1 43 -9.5254648476839066e-04</internalNodes>
          <leafValues>
            5.2683454751968384e-01 -1.9446150958538055e-01</leafValues></_>
        <_>
          <internalNodes>
            0 -1 5 -7.9609956592321396e-03</internalNodes>
          <leafValues>
            5.1743876934051514e-01 -1.9112479686737061e-01</leafValues></_>
        <_>
          <internalNodes>
            0 -1 1 -3.2671593129634857e-02</internalNodes>
          <leafValues>
            4.7622820734977722e-01 -2.0152196288108826e-01</leafValues></_>
        <_>
          <internalNodes>
            0 -1 40 8.3898138254880905e-03</internalNodes>
          <leafValues>
            1.5453885495662689e-01 -7.1656626462936401e-01</leafValues></_>
        <_>
          <internalNodes>
            0 -1 107 -1.1167863383889198e-02</internalNodes>
          <leafValues>
            -6.9497352838516235e-01 1.2621216475963593e-01</leafValues></_>
        <_>
          <internalNodes>
            0 -1 92 -9.0146828442811966e-03</internalNodes>
          <leafValues>
            8.3723008632659912e-01 -1.1795188486576080e-01</leafValues></_>
        <_>
          <internalNodes>
            0 -1 116 4.5243147760629654e-03</internalNodes>
          <leafValues>
            1.8743902444839478e-01 -5.3845453262329102e-01</leafValues></_>
        <_>
          <internalNodes>
            0 -1 46 1.2332694604992867e-02</internalNodes>
          <leafValues>
            -1.7960055172443390e-01 5.7257300615310669e-01</leafValues></_></weakClassifiers></_>
    <!-- stage 5 -->
    <_>
      <maxWeakCount>13</maxWeakCount>
      <stageThreshold>-7.2081655263900757e-01</stageThreshold>
      <weakClassifiers>
        <_>
          <internalNodes>
            0 -1 64 -9.3755368143320084e-03</internalNodes>
          <leafValues>
            -6.1481481790542603e-01 3.2716763019561768e-01</leafValues></_>
        <_>
          <internalNodes>
            0 -1 69 2.5603838264942169e-02</internalNodes>
          <leafValues>
            1.3269537687301636e-01 -6.7399317026138306e-01</leafValues></_>
        <_>
          <internalNodes>
            0 -1 76 2.6489881798624992e-02</internalNodes>
          <leafValues>
            1.2755544483661652e-01 -7.4506419897079468e-01</leafValues></_>
        <_>
          <internalNodes>
            0 -1 132 -2.9356624931097031e-02</internalNodes>
          <leafValues>
            -8.6547821760177612e-01 1.0401893407106400e-01</leafValues></_>
        <_>
          <internalNodes>
            0 -1 79 4.3818829581141472e-03</internalNodes>
          <leafValues>
            1.6409976780414581e-01 -5.6141388416290283e-01</leafValues></_>
        <_>
          <internalNodes>
            0 -1 39 -2.1909163333475590e-03</internalNodes>
          <leafValues>
            -6.7407715320587158e-01 1.2114480137825012e-01</leafValues></_>
        <_>
          <internalNodes>
            0 -1 0 -3.2129302620887756e-02</internalNodes>
          <leafValues>
            7.5394070148468018e-01 -1.6244356334209442e-01</leafValues></_>
        <_>
          <internalNodes>
            0 -1 106 -8.0810505896806717e-03</internalNodes>
          <leafValues>
            -7.8882724046707153e-01 1.2138152122497559e-01</leafValues></_>
        <_>
          <internalNodes>
            0 -1 17 -1.8875692039728165e-02</internalNodes>
          <leafValues>
            6.3103199005126953e-01 -1.6646997630596161e-01</leafValues></_>
        <_>
          <internalNodes>
            0 -1 37 7.5021228985860944e-04</internalNodes>
          <leafValues>
            2.0713761448860168e-01 -4.5206770300865173e-01</leafValues></_>
        <_>
          <internalNodes>
            0 -1 131 4.2616529390215874e-03</internalNodes>
          <leafValues>
            -1.4727652072906494e-01 6.9838756322860718e-01</leafValues></_>
        <_>
          <internalNodes>
            0 -1 27 -1.5036894008517265e-02</internalNodes>
          <leafValues>
            -5.9200227260589600e-01 1.6414932906627655e-01</leafValues></_>
        <_>
          <internalNodes>
            0 -1 117 6.9199153222143650e-03</internalNodes>
          <leafValues>
            -1.5113675594329834e-01 6.2047564983367920e-01</leafValues></_></weakClassifiers></_>
    <!-- stage 6 -->
    <_>
      <maxWeakCount>14</maxWeakCount>
      <stageThreshold>-5.6686449050903320e-01</stageThreshold>
      <weakClassifiers>
        <_>
          <internalNodes>
            0 -1 125 -9.5111846923828125e-02</internalNodes>
          <leafValues>
            -5.8620691299438477e-01 3.0316743254661560e-01</leafValues></_>
        <_>
          <internalNodes>
            0 -1 9 -1.2558450922369957e-02</internalNodes>
          <leafValues>
            -4.8639416694641113e-01 1.7443063855171204e-01</leafValues></_>
        <_>
          <internalNodes>
            0 -1 127 1.9860384054481983e-03</internalNodes>
          <leafValues>
            -1.2768206000328064e-01 6.1520355939865112e-01</leafValues></_>
        <_>
          <internalNodes>
            0 -1 65 2.2890554741024971e-02</internalNodes>
          <leafValues>
            1.2894433736801147e-01 -6.6553026437759399e-01</leafValues></_>
        <_>
          <internalNodes>
            0 -1 87 1.8993977457284927e-02</internalNodes>
          <leafValues>
            1.0341375321149826e-01 -5.2055907249450684e-01</leafValues></_>
        <_>
          <internalNodes>
            0 -1 33 -6.6505625844001770e-02</internalNodes>
          <leafValues>
            -8.9854812622070312e-01 1.0607065260410309e-01</leafValues></_>
        <_>
          <internalNodes>
            0 -1 2 2.9624214395880699e-02</internalNodes>
          <leafValues>
            -1.2053229659795761e-01 8.4749597311019897e-01</leafValues></_>
        <_>
          <internalNodes>
            0 -1 36 -1.8567048013210297e-02</internalNodes>
          <leafValues>
            -7.8418946266174316e-01 1.2190859019756317e-01</leafValues></_>
        <_>
          <internalNodes>
            0 -1 70 9.9632539786398411e-04</internalNodes>
          <leafValues>
            2.6666295528411865e-01 -2.9464223980903625e-01</leafValues></_>
        <_>
          <internalNodes>
            0 -1 58 -9.1572999954223633e-02</internalNodes>
          <leafValues>
            -7.5892424583435059e-01 9.2262491583824158e-02</leafValues></_>
        <_>
          <internalNodes>
            0 -1 26 1.2800632975995541e-02</internalNodes>
          <leafValues>
            -1.4839163422584534e-01 6.1508136987686157e-01</leafValues></_>
        <_>
          <internalNodes>
            0 -1 35 1.9234595820307732e-03</internalNodes>
          <leafValues>
            1.3783466815948486e-01 -6.2486273050308228e-01</leafValues></_>
        <_>
          <internalNodes>
            0 -1 75 1.0307300726708490e-05</internalNodes>
          <leafValues>
            -3.5886541008949280e-01 2.5761336088180542e-01</leafValues></_>
        <_>
          <internalNodes>
            0 -1 105 9.7566679120063782e-02</internalNodes>
          <leafValues>
            1.0969118028879166e-01 -8.4529346227645874e-01</leafValues></_></weakClassifiers></_>
    <!-- stage 7 -->
    <_>
      <maxWeakCount>13</maxWeakCount>
      <stageThreshold>-6.9994586706161499e-01</stageThreshold>
      <weakClassifiers>
        <_>
          <internalNodes>
            0 -1 52 3.4763603471219540e-03</internalNodes>
          <leafValues>
            3.6993464827537537e-01 -3.5319149494171143e-01</leafValues></_>
        <_>
          <internalNodes>
            0 -1 51 -2.6334477588534355e-03</internalNodes>
          <leafValues>
            -7.1980178356170654e-01 1.5376949310302734e-01</leafValues></_>
        <_>
          <internalNodes>
            0 -1 137 1.4730638358741999e-03</internalNodes>
          <leafValues>
            -1.5807889401912689e-01 5.9761536121368408e-01</leafValues></_>
        <_>
          <internalNodes>
            0 -1 100 -3.8388441316783428e-04</internalNodes>
          <leafValues>
            4.5293894410133362e-01 -1.8648646771907806e-01</leafValues></_>
        <_>
          <internalNodes>
            0 -1 57 1.7571955919265747e-02</internalNodes>
          <leafValues>
            -1.2624029815196991e-01 7.7823263406753540e-01</leafValues></_>
        <_>
          <internalNodes>
            0 -1 12 -1.1202927678823471e-02</internalNodes>
          <leafValues>
            5.3511327505111694e-01 -1.4504672586917877e-01</leafValues></_>
        <_>
          <internalNodes>
            0 -1 138 9.9225081503391266e-03</internalNodes>
          <leafValues>
            -1.5078340470790863e-01 5.9596347808837891e-01</leafValues></_>
        <_>
          <internalNodes>
            0 -1 102 -3.1115230172872543e-02</internalNodes>
          <leafValues>
            5.0072258710861206e-01 -1.6033351421356201e-01</leafValues></_>
        <_>
          <internalNodes>
            0 -1 49 1.2056615948677063e-01</internalNodes>
          <leafValues>
            1.6717076301574707e-01 -6.7901080846786499e-01</leafValues></_>
        <_>
          <internalNodes>
            0 -1 120 -1.7602863954380155e-03</internalNodes>
          <leafValues>
            1.7509862780570984e-01 -4.5535242557525635e-01</leafValues></_>
        <_>
          <internalNodes>
            0 -1 133 3.7082261405885220e-04</internalNodes>
          <leafValues>
            1.6936095058917999e-01 -5.8534711599349976e-01</leafValues></_>
        <_>
          <internalNodes>
            0 -1 103 -1.3805297203361988e-03</internalNodes>
          <leafValues>
            5.7162380218505859e-01 -1.7249181866645813e-01</leafValues></_>
        <_>
          <internalNodes>
            0 -1 66 1.7007064074277878e-02</internalNodes>
          <leafValues>
            1.7450526356697083e-01 -6.5943998098373413e-01</leafValues></_></weakClassifiers></_>
    <!-- stage 8 -->
    <_>
      <maxWeakCount>14</maxWeakCount>
      <stageThreshold>-5.6746119260787964e-01</stageThreshold>
      <weakClassifiers>
        <_>
          <internalNodes>
            0 -1 48 -2.8715185821056366e-02</internalNodes>
          <leafValues>
            -3.5510203242301941e-01 3.8013243675231934e-01</leafValues></_>
        <_>
          <internalNodes>
            0 -1 15 -6.5347068011760712e-03</internalNodes>
          <leafValues>
            -5.8493041992187500e-01 1.5839347243309021e-01</leafValues></_>
        <_>
          <internalNodes>
            0 -1 118 4.1863266378641129e-03</internalNodes>
          <leafValues>
            1.5314754843711853e-01 -6.6078835725784302e-01</leafValues></_>
        <_>
          <internalNodes>
            0 -1 113 3.7912265397608280e-03</internalNodes>
          <leafValues>
            3.1367370486259460e-01 -3.3505362272262573e-01</leafValues></_>
        <_>
          <internalNodes>
            0 -1 74 1.9124792888760567e-03</internalNodes>
          <leafValues>
            1.6437952220439911e-01 -5.6373834609985352e-01</leafValues></_>
        <_>
          <internalNodes>
            0 -1 19 1.0748133994638920e-02</internalNodes>
          <leafValues>
            -1.4706011116504669e-01 6.0977023839950562e-01</leafValues></_>
        <_>
          <internalNodes>
            0 -1 13 -2.6993760839104652e-03</internalNodes>
          <leafValues>
            5.9568631649017334e-01 -1.4815907180309296e-01</leafValues></_>
        <_>
          <internalNodes>
            0 -1 68 -1.9826905801892281e-02</internalNodes>
          <leafValues>
            8.9074766635894775e-01 -9.0323187410831451e-02</leafValues></_>
        <_>
          <internalNodes>
            0 -1 124 9.7132776863873005e-04</internalNodes>
          <leafValues>
            -1.5479539334774017e-01 5.9441351890563965e-01</leafValues></_>
        <_>
          <internalNodes>
            0 -1 112 -4.0731681510806084e-03</internalNodes>
          <leafValues>
            -5.3099465370178223e-01 2.0031063258647919e-01</leafValues></_>
        <_>
          <internalNodes>
            0 -1 136 6.7931815283372998e-04</internalNodes>
          <leafValues>
            -2.2648622095584869e-01 4.7209680080413818e-01</leafValues></_>
        <_>
          <internalNodes>
            0 -1 81 -5.5253028869628906e-02</internalNodes>
          <leafValues>
            -8.0775111913681030e-01 1.6679380834102631e-01</leafValues></_>
        <_>
          <internalNodes>
            0 -1 38 -1.3597907498478889e-02</internalNodes>
          <leafValues>
            -8.4634155035018921e-01 4.9669846892356873e-02</leafValues></_>
        <_>
          <internalNodes>
            0 -1 119 -1.6121827065944672e-03</internalNodes>
          <leafValues>
            -7.5413835048675537e-01 8.6031533777713776e-02</leafValues></_></weakClassifiers></_>
    <!-- stage 9 -->
    <_>
      <maxWeakCount>13</maxWeakCount>
      <stageThreshold>-7.7615249156951904e-01</stageThreshold>
      <weakClassifiers>
        <_>
          <internalNodes>
            0 -1 42 6.4456621184945107e-03</internalNodes>
          <leafValues>
            5.3658537566661835e-02 8.6666667461395264e-01</leafValues></_>
        <_>
          <internalNodes>
            0 -1 63 -3.4359602723270655e-03</internalNodes>
          <leafValues>
            7.0515298843383789e-01 -1.1373633891344070e-01</leafValues></_>
        <_>
          <internalNodes>
            0 -1 29 6.7384978756308556e-03</internalNodes>
          <leafValues>
            1.5651673078536987e-01 -6.9191986322402954e-01</leafValues></_>
        <_>
          <internalNodes>
            0 -1 88 4.1287211934104562e-04</internalNodes>
          <leafValues>
            -1.5042418241500854e-01 7.4688446521759033e-01</leafValues></_>
        <_>
          <internalNodes>
            0 -1 122 4.1651581414043903e-03</internalNodes>
          <leafValues>
            1.6165123879909515e-01 -6.9403851032257080e-01</leafValues></_>
        <_>
          <internalNodes>
            0 -1 71 6.1939414590597153e-03</internalNodes>
          <leafValues>
            -1.2748052179813385e-01 8.4753209352493286e-01</leafValues></_>
        <_>
          <internalNodes>
            0 -1 31 -1.1490539181977510e-03</internalNodes>
          <leafValues>
            5.7092422246932983e-01 -1.7100267112255096e-01</leafValues></_>
        <_>
          <internalNodes>
            0 -1 123 -2.1785238641314209e-04</internalNodes>
          <leafValues>
            3.2559973001480103e-01 -2.9525196552276611e-01</leafValues></_>
        <_>
          <internalNodes>
            0 -1 24 2.2501088678836823e-02</internalNodes>
          <leafValues>
            1.4354428648948669e-01 -7.2580039501190186e-01</leafValues></_>
        <_>
          <internalNodes>
            0 -1 126 2.4201956694014370e-04</internalNodes>
          <leafValues>
            3.0602827668190002e-01 -3.4459593892097473e-01</leafValues></_>
        <_>
          <internalNodes>
            0 -1 6 -3.2218948472291231e-03</internalNodes>
          <leafValues>
            6.0054451227188110e-01 -1.6903020441532135e-01</leafValues></_>
        <_>
          <internalNodes>
            0 -1 8 1.7027626745402813e-03</internalNodes>
          <leafValues>
            -1.8465858697891235e-01 6.5637499094009399e-01</leafValues></_>
        <_>
          <internalNodes>
            0 -1 7 7.7858008444309235e-04</internalNodes>
          <leafValues>
            2.6465710997581482e-01 -4.2401826381683350e-01</leafValues></_></weakClassifiers></_>
    <!-- stage 10 -->
    <_>
      <maxWeakCount>14</maxWeakCount>
      <stageThreshold>-7.8775268793106079e-01</stageThreshold>
      <weakClassifiers>
        <_>
          <internalNodes>
            0 -1 110 -8.3143450319766998e-03</internalNodes>
          <leafValues>
            -3.9366516470909119e-01 3.6842104792594910e-01</leafValues></_>
        <_>
          <internalNodes>
            0 -1 85 5.1938684191554785e-04</internalNodes>
          <leafValues>
            -1.5382918715476990e-01 6.6732573509216309e-01</leafValues></_>
        <_>
          <internalNodes>
            0 -1 10 -2.9847314581274986e-03</internalNodes>
          <leafValues>
            7.4803769588470459e-01 -1.2318143248558044e-01</leafValues></_>
        <_>
          <internalNodes>
            0 -1 130 7.2136321105062962e-03</internalNodes>
          <leafValues>
            -1.3947285711765289e-01 6.4175301790237427e-01</leafValues></_>
        <_>
          <internalNodes>
            0 -1 80 1.3522906228899956e-03</internalNodes>
          <leafValues>
            2.1257662773132324e-01 -4.8749798536300659e-01</leafValues></_>
        <_>
          <internalNodes>
            0 -1 97 7.4179470539093018e-04</internalNodes>
          <leafValues>
            -1.5445257723331451e-01 6.7210209369659424e-01</leafValues></_>
        <_>
          <internalNodes>
            0 -1 121 -7.4417318683117628e-04</internalNodes>
          <leafValues>
            5.2997821569442749e-01 -1.8106614053249359e-01</leafValues></_>
        <_>
          <internalNodes>
            0 -1 3 -2.9718829318881035e-03</internalNodes>
          <leafValues>
            6.0012453794479370e-01 -1.6195470094680786e-01</leafValues></_>
        <_>
          <internalNodes>
            0 -1 14 2.9847747646272182e-03</internalNodes>
          <leafValues>
            1.3567261397838593e-01 -8.5942137241363525e-01</leafValues></_>
        <_>
          <internalNodes>
            0 -1 114 -7.1472683921456337e-03</internalNodes>
          <leafValues>
            -7.4021780490875244e-01 1.2059392780065536e-01</leafValues></_>
        <_>
          <internalNodes>
            0 -1 16 -2.6161349378526211e-03</internalNodes>
          <leafValues>
            6.8420678377151489e-01 -1.4673514664173126e-01</leafValues></_>
        <_>
          <internalNodes>
            0 -1 93 -1.3756883330643177e-02</internalNodes>
          <leafValues>
            -4.4945141673088074e-01 2.4125602841377258e-01</leafValues></_>
        <_>
          <internalNodes>
            0 -1 109 4.5451922342181206e-03</internalNodes>
          <leafValues>
            1.1536299437284470e-01 -7.6803278923034668e-01</leafValues></_>
        <_>
          <internalNodes>
            0 -1 99 -2.1106088533997536e-03</internalNodes>
          <leafValues>
            4.4930383563041687e-01 -2.3023641109466553e-01</leafValues></_></weakClassifiers></_>
    <!-- stage 11 -->
    <_>
      <maxWeakCount>14</maxWeakCount>
      <stageThreshold>-6.2235867977142334e-01</stageThreshold>
      <weakClassifiers>
        <_>
          <internalNodes>
            0 -1 21 -3.8363642990589142e-02</internalNodes>
          <leafValues>
            -5.9776538610458374e-01 3.7393423914909363e-01</leafValues></_>
        <_>
          <internalNodes>
            0 -1 129 5.7018781080842018e-04</internalNodes>
          <leafValues>
            1.9909970462322235e-01 -4.8890829086303711e-01</leafValues></_>
        <_>
          <internalNodes>
            0 -1 135 3.7737842649221420e-03</internalNodes>
          <leafValues>
            -1.4809814095497131e-01 7.4746924638748169e-01</leafValues></_>
        <_>
          <internalNodes>
            0 -1 104 -7.4318065308034420e-03</internalNodes>
          <leafValues>
            7.0651131868362427e-01 -1.7645633220672607e-01</leafValues></_>
        <_>
          <internalNodes>
            0 -1 32 -2.1684048697352409e-02</internalNodes>
          <leafValues>
            -5.8648127317428589e-01 2.1536403894424438e-01</leafValues></_>
        <_>
          <internalNodes>
            0 -1 86 -6.0400053858757019e-02</internalNodes>
          <leafValues>
            -6.8464529514312744e-01 1.2976032495498657e-01</leafValues></_>
        <_>
          <internalNodes>
            0 -1 95 3.2285109045915306e-04</internalNodes>
          <leafValues>
            -1.8231542408466339e-01 5.7402038574218750e-01</leafValues></_>
        <_>
          <internalNodes>
            0 -1 53 -4.7691240906715393e-03</internalNodes>
          <leafValues>
            -5.2532118558883667e-01 2.2775806486606598e-01</leafValues></_>
        <_>
          <internalNodes>
            0 -1 84 -9.8887411877512932e-04</internalNodes>
          <leafValues>
            3.7869107723236084e-01 -2.7908182144165039e-01</leafValues></_>
        <_>
          <internalNodes>
            0 -1 41 3.7590777501463890e-03</internalNodes>
          <leafValues>
            1.5701960027217865e-01 -6.7387372255325317e-01</leafValues></_>
        <_>
          <internalNodes>
            0 -1 94 -1.1922758072614670e-02</internalNodes>
          <leafValues>
            -6.0038435459136963e-01 1.6123165190219879e-01</leafValues></_>
        <_>
          <internalNodes>
            0 -1 78 1.5864823013544083e-02</internalNodes>
          <leafValues>
            1.3355934619903564e-01 -7.7223384380340576e-01</leafValues></_>
        <_>
          <internalNodes>
            0 -1 96 2.6260362938046455e-04</internalNodes>
          <leafValues>
            -2.0131567120552063e-01 5.6466650962829590e-01</leafValues></_>
        <_>
          <internalNodes>
            0 -1 91 1.6612852923572063e-03</internalNodes>
          <leafValues>
            -2.0304888486862183e-01 5.3449243307113647e-01</leafValues></_></weakClassifiers></_></stages>
  <features>
    <_>
      <rects>
        <_>
          0 0 28 3 -1.</_>
        <_>
          7 0 14 3 2.</_></rects>
      <tilted>0</tilted></_>
    <_>
      <rects>
        <_>
          0 0 27 6 -1.</_>
        <_>
          0 3 27 3 2.</_></rects>
      <tilted>0</tilted></_>
    <_>
      <rects>
        <_>
          0 1 26 4 -1.</_>
        <_>
          0 1 13 2 2.</_>
        <_>
          13 3 13 2 2.</_></rects>
      <tilted>0</tilted></_>
    <_>
      <rects>
        <_>
          0 2 2 22 -1.</_>
        <_>
          1 2 1 22 2.</_></rects>
      <tilted>0</tilted></_>
    <_>
      <rects>
        <_>
          0 2 16 4 -1.</_>
        <_>
          0 2 8 2 2.</_>
        <_>
          8 4 8 2 2.</_></rects>
      <tilted>0</tilted></_>
    <_>
      <rects>
        <_>
          0 7 4 22 -1.</_>
        <_>
          0 7 2 11 2.</_>
        <_>
          2 18 2 11 2.</_></rects>
      <tilted>0</tilted></_>
    <_>
      <rects>
        <_>
          0 10 2 20 -1.</_>
        <_>
          0 10 1 10 2.</_>
        <_>
          1 20 1 10 2.</_></rects>
      <tilted>0</tilted></_>
    <_>
      <rects>
        <_>
          0 13 6 2 -1.</_>
        <_>
          0 14 6 1 2.</_></rects>
      <tilted>0</tilted></_>
    <_>
      <rects>
        <_>
          0 15 2 8 -1.</_>
        <_>
          0 15 1 4 2.</_>
        <_>
          1 19 1 4 2.</_></rects>
      <tilted>0</tilted></_>
    <_>
      <rects>
        <_>
          0 16 32 4 -1.</_>
        <_>
          0 18 32 2 2.</_></rects>
      <tilted>0</tilted></_>
    <_>
      <rects>
        <_>
          0 18 2 10 -1.</_>
        <_>
          0 18 1 5 2.</_>
        <_>
          1 23 1 5 2.</_></rects>
      <tilted>0</tilted></_>
    <_>
      <rects>
        <_>
          0 21 4 10 -1.</_>
        <_>
          0 21 2 5 2.</_>
        <_>
          2 26 2 5 2.</_></rects>
      <tilted>0</tilted></_>
    <_>
      <rects>
        <_>
          0 29 12 3 -1.</_>
        <_>
          4 30 4 1 9.</_></rects>
      <tilted>0</tilted></_>
    <_>
      <rects>
        <_>
          1 1 14 2 -1.</_>
        <_>
          1 1 7 1 2.</_>
        <_>
          8 2 7 1 2.</_></rects>
      <tilted>0</tilted></_>
    <_>
      <rects>
        <_>
          1 16 5 3 -1.</_>
        <_>
          1 17 5 1 3.</_></rects>
      <tilted>0</tilted></_>
    <_>
      <rects>
        <_>
          1 20 31 3 -1.</_>
        <_>
          1 21 31 1 3.</_></rects>
      <tilted>0</tilted></_>
    <_>
      <rects>
        <_>
          1 24 1 6 -1.</_>
        <_>
          1 26 1 2 3.</_></rects>
      <tilted>0</tilted></_>
    <_>
      <rects>
        <_>
          1 25 20 6 -1.</_>
        <_>
          1 25 10 3 2.</_>
        <_>
          11 28 10 3 2.</_></rects>
      <tilted>0</tilted></_>
    <_>
      <rects>
        <_>
          2 0 6 1 -1.</_>
        <_>
          2 0 3 1 2.</_></rects>
      <tilted>1</tilted></_>
    <_>
      <rects>
        <_>
          2 0 14 4 -1.</_>
        <_>
          2 0 7 2 2.</_>
        <_>
          9 2 7 2 2.</_></rects>
      <tilted>0</tilted></_>
    <_>
      <rects>
        <_>
          2 0 28 4 -1.</_>
        <_>
          2 2 28 2 2.</_></rects>
      <tilted>0</tilted></_>
    <_>
      <rects>
        <_>
          2 4 16 8 -1.</_>
        <_>
          2 6 16 4 2.</_></rects>
      <tilted>0</tilted></_>
    <_>
      <rects>
        <_>
          2 6 30 21 -1.</_>
        <_>
          12 13 10 7 9.</_></rects>
      <tilted>0</tilted></_>
    <_>
      <rects>
        <_>
          2 12 27 9 -1.</_>
        <_>
          2 15 27 3 3.</_></rects>
      <tilted>0</tilted></_>
    <_>
      <rects>
        <_>
          2 15 10 5 -1.</_>
        <_>
          7 15 5 5 2.</_></rects>
      <tilted>0</tilted></_>
    <_>
      <rects>
        <_>
          2 25 5 2 -1.</_>
        <_>
          2 25 5 1 2.</_></rects>
      <tilted>1</tilted></_>
    <_>
      <rects>
        <_>
          2 31 30 1 -1.</_>
        <_>
          17 31 15 1 2.</_></rects>
      <tilted>0</tilted></_>
    <_>
      <rects>
        <_>
          3 5 8 19 -1.</_>
        <_>
          7 5 4 19 2.</_></rects>
      <tilted>0</tilted></_>
    <_>
      <rects>
        <_>
          3 12 25 8 -1.</_>
        <_>
          3 16 25 4 2.</_></rects>
      <tilted>0</tilted></_>
    <_>
      <rects>
        <_>
          3 13 26 3 -1.</_>
        <_>
          3 14 26 1 3.</_></rects>
      <tilted>0</tilted></_>
    <_>
      <rects>
        <_>
          3 22 4 3 -1.</_>
        <_>
          2 23 4 1 3.</_></rects>
      <tilted>1</tilted></_>
    <_>
      <rects>
        <_>
          4 0 10 2 -1.</_>
        <_>
          4 0 5 1 2.</_>
        <_>
          9 1 5 1 2.</_></rects>
      <tilted>0</tilted></_>
    <_>
      <rects>
        <_>
          4 5 19 14 -1.</_>
        <_>
          4 12 19 7 2.</_></rects>
      <tilted>0</tilted></_>
    <_>
      <rects>
        <_>
          4 7 18 9 -1.</_>
        <_>
          10 10 6 3 9.</_></rects>
      <tilted>0</tilted></_>
    <_>
      <rects>
        <_>
          4 9 18 11 -1.</_>
        <_>
          10 9 6 11 3.</_></rects>
      <tilted>0</tilted></_>
    <_>
      <rects>
        <_>
          4 10 3 9 -1.</_>
        <_>
          5 10 1 9 3.</_></rects>
      <tilted>0</tilted></_>
    <_>
      <rects>
        <_>
          4 11 11 9 -1.</_>
        <_>
          4 14 11 3 3.</_></rects>
      <tilted>0</tilted></_>
    <_>
      <rects>
        <_>
          4 12 3 3 -1.</_>
        <_>
          4 13 3 1 3.</_></rects>
      <tilted>0</tilted></_>
    <_>
      <rects>
        <_>
          4 14 16 5 -1.</_>
        <_>
          12 14 8 5 2.</_></rects>
      <tilted>0</tilted></_>
    <_>
      <rects>
        <_>
          4 15 5 3 -1.</_>
        <_>
          4 16 5 1 3.</_></rects>
      <tilted>0</tilted></_>
    <_>
      <rects>
        <_>
          4 17 24 1 -1.</_>
        <_>
          16 17 12 1 2.</_></rects>
      <tilted>0</tilted></_>
    <_>
      <rects>
        <_>
          4 20 8 3 -1.</_>
        <_>
          4 21 8 1 3.</_></rects>
      <tilted>0</tilted></_>
    <_>
      <rects>
        <_>
          4 30 22 2 -1.</_>
        <_>
          4 31 22 1 2.</_></rects>
      <tilted>0</tilted></_>
    <_>
      <rects>
        <_>
          4 31 6 1 -1.</_>
        <_>
          7 31 3 1 2.</_></rects>
      <tilted>0</tilted></_>
    <_>
      <rects>
        <_>
          5 1 3 6 -1.</_>
        <_>
          5 4 3 3 2.</_></rects>
      <tilted>0</tilted></_>
    <_>
      <rects>
        <_>
          5 1 26 4 -1.</_>
        <_>
          5 1 13 2 2.</_>
        <_>
          18 3 13 2 2.</_></rects>
      <tilted>0</tilted></_>
    <_>
      <rects>
        <_>
          5 1 23 4 -1.</_>
        <_>
          5 3 23 2 2.</_></rects>
      <tilted>0</tilted></_>
    <_>
      <rects>
        <_>
          5 7 24 12 -1.</_>
        <_>
          13 11 8 4 9.</_></rects>
      <tilted>0</tilted></_>
    <_>
      <rects>
        <_>
          5 7 22 18 -1.</_>
        <_>
          5 16 22 9 2.</_></rects>
      <tilted>0</tilted></_>
    <_>
      <rects>
        <_>
          5 9 21 12 -1.</_>
        <_>
          12 13 7 4 9.</_></rects>
      <tilted>0</tilted></_>
    <_>
      <rects>
        <_>
          5 14 24 4 -1.</_>
        <_>
          5 15 24 2 2.</_></rects>
      <tilted>0</tilted></_>
    <_>
      <rects>
        <_>
          5 17 5 3 -1.</_>
        <_>
          5 18 5 1 3.</_></rects>
      <tilted>0</tilted></_>
    <_>
      <rects>
        <_>
          5 17 25 3 -1.</_>
        <_>
          5 18 25 1 3.</_></rects>
      <tilted>0</tilted></_>
    <_>
      <rects>
        <_>
          6 6 15 3 -1.</_>
        <_>
          6 7 15 1 3.</_></rects>
      <tilted>0</tilted></_>
    <_>
      <rects>
        <_>
          6 8 6 5 -1.</_>
        <_>
          6 8 3 5 2.</_></rects>
      <tilted>1</tilted></_>
    <_>
      <rects>
        <_>
          6 12 26 11 -1.</_>
        <_>
          19 12 13 11 2.</_></rects>
      <tilted>0</tilted></_>
    <_>
      <rects>
        <_>
          6 12 24 8 -1.</_>
        <_>
          6 16 24 4 2.</_></rects>
      <tilted>0</tilted></_>
    <_>
      <rects>
        <_>
          7 2 20 4 -1.</_>
        <_>
          7 2 10 2 2.</_>
        <_>
          17 4 10 2 2.</_></rects>
      <tilted>0</tilted></_>
    <_>
      <rects>
        <_>
          7 6 18 6 -1.</_>
        <_>
          7 6 9 6 2.</_></rects>
      <tilted>1</tilted></_>
    <_>
      <rects>
        <_>
          7 7 17 12 -1.</_>
        <_>
          7 13 17 6 2.</_></rects>
      <tilted>0</tilted></_>
    <_>
      <rects>
        <_>
          7 7 22 16 -1.</_>
        <_>
          7 15 22 8 2.</_></rects>
      <tilted>0</tilted></_>
    <_>
      <rects>
        <_>
          7 10 15 12 -1.</_>
        <_>
          12 14 5 4 9.</_></rects>
      <tilted>0</tilted></_>
    <_>
      <rects>
        <_>
          7 10 21 18 -1.</_>
        <_>
          7 19 21 9 2.</_></rects>
      <tilted>0</tilted></_>
    <_>
      <rects>
        <_>
          8 1 2 4 -1.</_>
        <_>
          8 3 2 2 2.</_></rects>
      <tilted>0</tilted></_>
    <_>
      <rects>
        <_>
          8 10 19 6 -1.</_>
        <_>
          8 13 19 3 2.</_></rects>
      <tilted>0</tilted></_>
    <_>
      <rects>
        <_>
          8 11 24 12 -1.</_>
        <_>
          20 11 12 12 2.</_></rects>
      <tilted>0</tilted></_>
    <_>
      <rects>
        <_>
          8 16 24 6 -1.</_>
        <_>
          8 19 24 3 2.</_></rects>
      <tilted>0</tilted></_>
    <_>
      <rects>
        <_>
          8 30 12 2 -1.</_>
        <_>
          8 30 6 1 2.</_>
        <_>
          14 31 6 1 2.</_></rects>
      <tilted>0</tilted></_>
    <_>
      <rects>
        <_>
          9 3 11 4 -1.</_>
        <_>
          9 5 11 2 2.</_></rects>
      <tilted>0</tilted></_>
    <_>
      <rects>
        <_>
          9 4 20 2 -1.</_>
        <_>
          9 4 10 2 2.</_></rects>
      <tilted>1</tilted></_>
    <_>
      <rects>
        <_>
          9 23 6 6 -1.</_>
        <_>
          11 25 2 2 9.</_></rects>
      <tilted>0</tilted></_>
    <_>
      <rects>
        <_>
          9 25 3 4 -1.</_>
        <_>
          8 26 3 2 2.</_></rects>
      <tilted>1</tilted></_>
    <_>
      <rects>
        <_>
          10 6 16 5 -1.</_>
        <_>
          10 6 8 5 2.</_></rects>
      <tilted>1</tilted></_>
    <_>
      <rects>
        <_>
          10 10 14 14 -1.</_>
        <_>
          10 17 14 7 2.</_></rects>
      <tilted>0</tilted></_>
    <_>
      <rects>
        <_>
          11 5 4 3 -1.</_>
        <_>
          11 5 2 3 2.</_></rects>
      <tilted>1</tilted></_>
    <_>
      <rects>
        <_>
          11 8 14 2 -1.</_>
        <_>
          11 9 14 1 2.</_></rects>
      <tilted>0</tilted></_>
    <_>
      <rects>
        <_>
          11 11 11 16 -1.</_>
        <_>
          11 19 11 8 2.</_></rects>
      <tilted>0</tilted></_>
    <_>
      <rects>
        <_>
          12 10 8 9 -1.</_>
        <_>
          12 10 4 9 2.</_></rects>
      <tilted>1</tilted></_>
    <_>
      <rects>
        <_>
          12 10 14 11 -1.</_>
        <_>
          19 10 7 11 2.</_></rects>
      <tilted>0</tilted></_>
    <_>
      <rects>
        <_>
          12 15 20 3 -1.</_>
        <_>
          12 16 20 1 3.</_></rects>
      <tilted>0</tilted></_>
    <_>
      <rects>
        <_>
          12 16 9 3 -1.</_>
        <_>
          12 17 9 1 3.</_></rects>
      <tilted>0</tilted></_>
    <_>
      <rects>
        <_>
          13 8 18 5 -1.</_>
        <_>
          22 8 9 5 2.</_></rects>
      <tilted>0</tilted></_>
    <_>
      <rects>
        <_>
          13 9 7 6 -1.</_>
        <_>
          13 9 7 3 2.</_></rects>
      <tilted>1</tilted></_>
    <_>
      <rects>
        <_>
          13 10 14 8 -1.</_>
        <_>
          13 12 14 4 2.</_></rects>
      <tilted>0</tilted></_>
    <_>
      <rects>
        <_>
          13 16 6 3 -1.</_>
        <_>
          15 17 2 1 9.</_></rects>
      <tilted>0</tilted></_>
    <_>
      <rects>
        <_>
          13 19 2 2 -1.</_>
        <_>
          13 20 2 1 2.</_></rects>
      <tilted>0</tilted></_>
    <_>
      <rects>
        <_>
          14 2 7 14 -1.</_>
        <_>
          14 2 7 7 2.</_></rects>
      <tilted>1</tilted></_>
    <_>
      <rects>
        <_>
          14 7 16 2 -1.</_>
        <_>
          14 7 8 2 2.</_></rects>
      <tilted>1</tilted></_>
    <_>
      <rects>
        <_>
          14 12 1 2 -1.</_>
        <_>
          14 13 1 1 2.</_></rects>
      <tilted>0</tilted></_>
    <_>
      <rects>
        <_>
          15 6 6 9 -1.</_>
        <_>
          12 9 6 3 3.</_></rects>
      <tilted>1</tilted></_>
    <_>
      <rects>
        <_>
          15 8 8 4 -1.</_>
        <_>
          15 8 4 4 2.</_></rects>
      <tilted>1</tilted></_>
    <_>
      <rects>
        <_>
          15 14 3 3 -1.</_>
        <_>
          16 15 1 1 9.</_></rects>
      <tilted>0</tilted></_>
    <_>
      <rects>
        <_>
          15 29 14 3 -1.</_>
        <_>
          15 30 14 1 3.</_></rects>
      <tilted>0</tilted></_>
    <_>
      <rects>
        <_>
          16 6 3 16 -1.</_>
        <_>
          16 6 3 8 2.</_></rects>
      <tilted>1</tilted></_>
    <_>
      <rects>
        <_>
          16 12 16 8 -1.</_>
        <_>
          20 12 8 8 2.</_></rects>
      <tilted>0</tilted></_>
    <_>
      <rects>
        <_>
          16 15 1 2 -1.</_>
        <_>
          16 16 1 1 2.</_></rects>
      <tilted>0</tilted></_>
    <_>
      <rects>
        <_>
          16 16 1 2 -1.</_>
        <_>
          16 17 1 1 2.</_></rects>
      <tilted>0</tilted></_>
    <_>
      <rects>
        <_>
          16 19 3 2 -1.</_>
        <_>
          16 20 3 1 2.</_></rects>
      <tilted>0</tilted></_>
    <_>
      <rects>
        <_>
          17 7 3 14 -1.</_>
        <_>
          17 7 3 7 2.</_></rects>
      <tilted>1</tilted></_>
    <_>
      <rects>
        <_>
          17 13 6 3 -1.</_>
        <_>
          19 14 2 1 9.</_></rects>
      <tilted>0</tilted></_>
    <_>
      <rects>
        <_>
          17 19 4 2 -1.</_>
        <_>
          17 19 2 1 2.</_>
        <_>
          19 20 2 1 2.</_></rects>
      <tilted>0</tilted></_>
    <_>
      <rects>
        <_>
          18 5 9 12 -1.</_>
        <_>
          18 5 9 6 2.</_></rects>
      <tilted>1</tilted></_>
    <_>
      <rects>
        <_>
          18 24 14 8 -1.</_>
        <_>
          18 28 14 4 2.</_></rects>
      <tilted>0</tilted></_>
    <_>
      <rects>
        <_>
          19 18 4 4 -1.</_>
        <_>
          19 18 2 2 2.</_>
        <_>
          21 20 2 2 2.</_></rects>
      <tilted>0</tilted></_>
    <_>
      <rects>
        <_>
          19 28 11 4 -1.</_>
        <_>
          19 29 11 2 2.</_></rects>
      <tilted>0</tilted></_>
    <_>
      <rects>
        <_>
          20 3 8 22 -1.</_>
        <_>
          20 14 8 11 2.</_></rects>
      <tilted>0</tilted></_>
    <_>
      <rects>
        <_>
          20 6 3 12 -1.</_>
        <_>
          17 9 3 6 2.</_></rects>
      <tilted>1</tilted></_>
    <_>
      <rects>
        <_>
          20 12 5 6 -1.</_>
        <_>
          20 12 5 3 2.</_></rects>
      <tilted>1</tilted></_>
    <_>
      <rects>
        <_>
          21 3 11 14 -1.</_>
        <_>
          21 3 11 7 2.</_></rects>
      <tilted>1</tilted></_>
    <_>
      <rects>
        <_>
          21 7 4 6 -1.</_>
        <_>
          21 7 4 3 2.</_></rects>
      <tilted>1</tilted></_>
    <_>
      <rects>
        <_>
          21 21 9 4 -1.</_>
        <_>
          21 23 9 2 2.</_></rects>
      <tilted>0</tilted></_>
    <_>
      <rects>
        <_>
          22 6 5 16 -1.</_>
        <_>
          22 6 5 8 2.</_></rects>
      <tilted>1</tilted></_>
    <_>
      <rects>
        <_>
          22 8 2 16 -1.</_>
        <_>
          22 8 1 16 2.</_></rects>
      <tilted>1</tilted></_>
    <_>
      <rects>
        <_>
          22 8 6 12 -1.</_>
        <_>
          24 12 2 4 9.</_></rects>
      <tilted>0</tilted></_>
    <_>
      <rects>
        <_>
          22 11 7 6 -1.</_>
        <_>
          22 14 7 3 2.</_></rects>
      <tilted>0</tilted></_>
    <_>
      <rects>
        <_>
          22 29 10 2 -1.</_>
        <_>
          22 29 5 1 2.</_>
        <_>
          27 30 5 1 2.</_></rects>
      <tilted>0</tilted></_>
    <_>
      <rects>
        <_>
          23 13 4 6 -1.</_>
        <_>
          23 13 4 3 2.</_></rects>
      <tilted>1</tilted></_>
    <_>
      <rects>
        <_>
          24 1 8 6 -1.</_>
        <_>
          24 1 4 3 2.</_>
        <_>
          28 4 4 3 2.</_></rects>
      <tilted>0</tilted></_>
    <_>
      <rects>
        <_>
          24 13 8 4 -1.</_>
        <_>
          28 13 4 4 2.</_></rects>
      <tilted>0</tilted></_>
    <_>
      <rects>
        <_>
          25 8 3 1 -1.</_>
        <_>
          26 9 1 1 3.</_></rects>
      <tilted>1</tilted></_>
    <_>
      <rects>
        <_>
          25 9 3 6 -1.</_>
        <_>
          25 9 3 3 2.</_></rects>
      <tilted>1</tilted></_>
    <_>
      <rects>
        <_>
          25 28 2 4 -1.</_>
        <_>
          25 29 2 2 2.</_></rects>
      <tilted>0</tilted></_>
    <_>
      <rects>
        <_>
          26 8 3 6 -1.</_>
        <_>
          26 8 3 3 2.</_></rects>
      <tilted>1</tilted></_>
    <_>
      <rects>
        <_>
          26 10 1 4 -1.</_>
        <_>
          25 11 1 2 2.</_></rects>
      <tilted>1</tilted></_>
    <_>
      <rects>
        <_>
          26 28 6 2 -1.</_>
        <_>
          26 28 3 1 2.</_>
        <_>
          29 29 3 1 2.</_></rects>
      <tilted>0</tilted></_>
    <_>
      <rects>
        <_>
          27 3 5 22 -1.</_>
        <_>
          27 3 5 11 2.</_></rects>
      <tilted>1</tilted></_>
    <_>
      <rects>
        <_>
          27 4 2 3 -1.</_>
        <_>
          26 5 2 1 3.</_></rects>
      <tilted>1</tilted></_>
    <_>
      <rects>
        <_>
          28 1 4 3 -1.</_>
        <_>
          28 2 4 1 3.</_></rects>
      <tilted>0</tilted></_>
    <_>
      <rects>
        <_>
          28 6 4 18 -1.</_>
        <_>
          28 6 4 9 2.</_></rects>
      <tilted>1</tilted></_>
    <_>
      <rects>
        <_>
          28 13 3 3 -1.</_>
        <_>
          28 14 3 1 3.</_></rects>
      <tilted>0</tilted></_>
    <_>
      <rects>
        <_>
          28 18 4 14 -1.</_>
        <_>
          28 18 2 7 2.</_>
        <_>
          30 25 2 7 2.</_></rects>
      <tilted>0</tilted></_>
    <_>
      <rects>
        <_>
          29 0 3 2 -1.</_>
        <_>
          29 0 3 1 2.</_></rects>
      <tilted>1</tilted></_>
    <_>
      <rects>
        <_>
          29 8 2 10 -1.</_>
        <_>
          29 8 2 5 2.</_></rects>
      <tilted>1</tilted></_>
    <_>
      <rects>
        <_>
          29 12 1 3 -1.</_>
        <_>
          29 13 1 1 3.</_></rects>
      <tilted>0</tilted></_>
    <_>
      <rects>
        <_>
          30 0 2 4 -1.</_>
        <_>
          30 0 2 2 2.</_></rects>
      <tilted>1</tilted></_>
    <_>
      <rects>
        <_>
          30 1 1 4 -1.</_>
        <_>
          30 1 1 2 2.</_></rects>
      <tilted>1</tilted></_>
    <_>
      <rects>
        <_>
          30 4 2 3 -1.</_>
        <_>
          31 4 1 3 2.</_></rects>
      <tilted>0</tilted></_>
    <_>
      <rects>
        <_>
          30 6 2 4 -1.</_>
        <_>
          31 6 1 4 2.</_></rects>
      <tilted>0</tilted></_>
    <_>
      <rects>
        <_>
          30 22 2 10 -1.</_>
        <_>
          30 27 2 5 2.</_></rects>
      <tilted>0</tilted></_></features></cascade>
</opencv_storage>
