<?xml version="1.0"?>
<opencv_storage>
<cascade>
  <stageType>BOOST</stageType>
  <featureType>HAAR</featureType>
  <height>32</height>
  <width>32</width>
  <stageParams>
    <boostType>GAB</boostType>
    <minHitRate>9.9900001287460327e-01</minHitRate>
    <maxFalseAlarm>5.0000000000000000e-01</maxFalseAlarm>
    <weightTrimRate>9.4999999999999996e-01</weightTrimRate>
    <maxDepth>1</maxDepth>
    <maxWeakCount>100</maxWeakCount></stageParams>
  <featureParams>
    <maxCatCount>0</maxCatCount>
    <featSize>1</featSize>
    <mode>ALL</mode></featureParams>
  <stageNum>10</stageNum>
  <stages>
    <!-- stage 0 -->
    <_>
      <maxWeakCount>12</maxWeakCount>
      <stageThreshold>-1.6337835788726807e+00</stageThreshold>
      <weakClassifiers>
        <_>
          <internalNodes>
            0 -1 23 3.0340743064880371e-01</internalNodes>
          <leafValues>
            -5.8434545993804932e-01 5.9773373603820801e-01</leafValues></_>
        <_>
          <internalNodes>
            0 -1 53 2.6459265500307083e-03</internalNodes>
          <leafValues>
            -1.4391385018825531e-01 9.0484005212783813e-01</leafValues></_>
        <_>
          <internalNodes>
            0 -1 69 -4.3837720295414329e-04</internalNodes>
          <leafValues>
            7.8062248229980469e-01 -1.8955284357070923e-01</leafValues></_>
        <_>
          <internalNodes>
            0 -1 6 4.0874499827623367e-03</internalNodes>
          <leafValues>
            -1.7841060459613800e-01 7.7856254577636719e-01</leafValues></_>
        <_>
          <internalNodes>
            0 -1 95 -9.8827118054032326e-03</internalNodes>
          <leafValues>
            3.4918180108070374e-01 -4.5998379588127136e-01</leafValues></_>
        <_>
          <internalNodes>
            0 -1 73 2.6033457834273577e-03</internalNodes>
          <leafValues>
            -1.9775865972042084e-01 7.6116496324539185e-01</leafValues></_>
        <_>
          <internalNodes>
            0 -1 4 -3.2508894801139832e-03</internalNodes>
          <leafValues>
            6.4891403913497925e-01 -2.0548288524150848e-01</leafValues></_>
        <_>
          <internalNodes>
            0 -1 34 4.0608523413538933e-03</internalNodes>
          <leafValues>
            -1.7139898240566254e-01 6.7714262008666992e-01</leafValues></_>
        <_>
          <internalNodes>
            0 -1 19 3.0869853217154741e-03</internalNodes>
          <leafValues>
            -4.4084769487380981e-01 3.2438376545906067e-01</leafValues></_>
        <_>
          <internalNodes>
            0 -1 114 -1.0073978453874588e-02</internalNodes>
          <leafValues>
            4.0837046504020691e-01 -3.2694223523139954e-01</leafValues></_>
        <_>
          <internalNodes>
            0 -1 50 -2.1251100115478039e-03</internalNodes>
          <leafValues>
            7.2510206699371338e-01 -2.0564046502113342e-01</leafValues></_>
        <_>
          <internalNodes>
            0 -1 126 7.3594157584011555e-04</internalNodes>
          <leafValues>
            -1.0390312224626541e-01 8.8087892532348633e-01</leafValues></_></weakClassifiers></_>
    <!-- stage 1 -->
    <_>
      <maxWeakCount>15</maxWeakCount>
      <stageThreshold>-1.3655251264572144e+00</stageThreshold>
      <weakClassifiers>
        <_>
          <internalNodes>
            0 -1 23 4.7554489970207214e-01</internalNodes>
          <leafValues>
            -3.5034802556037903e-01 5.3518122434616089e-01</leafValues></_>
        <_>
          <internalNodes>
            0 -1 12 1.0333085665479302e-03</internalNodes>
          <leafValues>
            -1.9412828981876373e-01 6.5787839889526367e-01</leafValues></_>
        <_>
          <internalNodes>
            0 -1 92 -5.5372639326378703e-04</internalNodes>
          <leafValues>
            8.3088719844818115e-01 -1.5131065249443054e-01</leafValues></_>
        <_>
          <internalNodes>
            0 -1 14 -5.3748622303828597e-04</internalNodes>
          <leafValues>
            7.0201784372329712e-01 -2.0474652945995331e-01</leafValues></_>
        <_>
          <internalNodes>
            0 -1 84 2.4862103164196014e-03</internalNodes>
          <leafValues>
            -1.2831886112689972e-01 8.0100995302200317e-01</leafValues></_>
        <_>
          <internalNodes>
            0 -1 84 -1.8963799811899662e-03</internalNodes>
          <leafValues>
            7.6371026039123535e-01 -2.2767244279384613e-01</leafValues></_>
        <_>
          <internalNodes>
            0 -1 120 -9.9876001477241516e-03</internalNodes>
          <leafValues>
            4.8346483707427979e-01 -2.5003367662429810e-01</leafValues></_>
        <_>
          <internalNodes>
            0 -1 3 -1.6888154204934835e-03</internalNodes>
          <leafValues>
            8.4910023212432861e-01 -1.3082680106163025e-01</leafValues></_>
        <_>
          <internalNodes>
            0 -1 87 5.1212415564805269e-04</internalNodes>
          <leafValues>
            -1.5805357694625854e-01 7.2582089900970459e-01</leafValues></_>
        <_>
          <internalNodes>
            0 -1 45 1.8967362120747566e-03</internalNodes>
          <leafValues>
            -4.4472599029541016e-01 2.9238176345825195e-01</leafValues></_>
        <_>
          <internalNodes>
            0 -1 72 -4.2968470370396972e-04</internalNodes>
          <leafValues>
            7.0572865009307861e-01 -1.7351540923118591e-01</leafValues></_>
        <_>
          <internalNodes>
            0 -1 42 2.1687056869268417e-03</internalNodes>
          <leafValues>
            -1.5132328867912292e-01 8.2390826940536499e-01</leafValues></_>
        <_>
          <internalNodes>
            0 -1 22 8.8379926979541779e-02</internalNodes>
          <leafValues>
            -1.3184402883052826e-01 6.9807541370391846e-01</leafValues></_>
        <_>
          <internalNodes>
            0 -1 71 -9.7355287289246917e-04</internalNodes>
          <leafValues>
            6.7724090814590454e-01 -1.6711953282356262e-01</leafValues></_>
        <_>
          <internalNodes>
            0 -1 76 3.5215846728533506e-03</internalNodes>
          <leafValues>
            -1.1893099546432495e-01 9.0252333879470825e-01</leafValues></_></weakClassifiers></_>
    <!-- stage 2 -->
    <_>
      <maxWeakCount>20</maxWeakCount>
      <stageThreshold>-1.5311702489852905e+00</stageThreshold>
      <weakClassifiers>
        <_>
          <internalNodes>
            0 -1 15 2.5120735168457031e-01</internalNodes>
          <leafValues>
            -2.1521335840225220e-01 5.9833794832229614e-01</leafValues></_>
        <_>
          <internalNodes>
            0 -1 85 2.7465391904115677e-03</internalNodes>
          <leafValues>
            -1.3337501883506775e-01 7.2763603925704956e-01</leafValues></_>
        <_>
          <internalNodes>
            0 -1 85 -2.0134849473834038e-03</internalNodes>
          <leafValues>
            6.4236867427825928e-01 -2.1241144835948944e-01</leafValues></_>
        <_>
          <internalNodes>
            0 -1 40 -3.9657014422118664e-03</internalNodes>
          <leafValues>
            3.1687569618225098e-01 -3.1747722625732422e-01</leafValues></_>
        <_>
          <internalNodes>
            0 -1 79 4.0133448783308268e-04</internalNodes>
          <leafValues>
            -1.9964766502380371e-01 5.8199721574783325e-01</leafValues></_>
        <_>
          <internalNodes>
            0 -1 58 -5.4041523253545165e-04</internalNodes>
          <leafValues>
            6.7028737068176270e-01 -1.2734338641166687e-01</leafValues></_>
        <_>
          <internalNodes>
            0 -1 91 2.1806959994137287e-03</internalNodes>
          <leafValues>
            -1.0993039608001709e-01 8.0000466108322144e-01</leafValues></_>
        <_>
          <internalNodes>
            0 -1 69 -5.1258836174383759e-04</internalNodes>
          <leafValues>
            6.5565645694732666e-01 -1.3829106092453003e-01</leafValues></_>
        <_>
          <internalNodes>
            0 -1 49 -2.0143862813711166e-02</internalNodes>
          <leafValues>
            2.4505536258220673e-01 -4.8678234219551086e-01</leafValues></_>
        <_>
          <internalNodes>
            0 -1 88 -1.0864255018532276e-03</internalNodes>
          <leafValues>
            8.9398759603500366e-01 -1.0205041617155075e-01</leafValues></_>
        <_>
          <internalNodes>
            0 -1 14 -7.3581794276833534e-04</internalNodes>
          <leafValues>
            7.0454967021942139e-01 -1.4295053482055664e-01</leafValues></_>
        <_>
          <internalNodes>
            0 -1 2 -6.3230725936591625e-04</internalNodes>
          <leafValues>
            7.2835350036621094e-01 -1.2038413435220718e-01</leafValues></_>
        <_>
          <internalNodes>
            0 -1 57 -9.6109567675739527e-04</internalNodes>
          <leafValues>
            8.0945467948913574e-01 -1.1466839164495468e-01</leafValues></_>
        <_>
          <internalNodes>
            0 -1 67 -1.2074857950210571e-02</internalNodes>
          <leafValues>
            -5.9271407127380371e-01 2.0058675110340118e-01</leafValues></_>
        <_>
          <internalNodes>
            0 -1 54 2.6354559231549501e-03</internalNodes>
          <leafValues>
            -1.6259890794754028e-01 7.1802520751953125e-01</leafValues></_>
        <_>
          <internalNodes>
            0 -1 54 -2.6657967828214169e-03</internalNodes>
          <leafValues>
            7.3252058029174805e-01 -1.2801928818225861e-01</leafValues></_>
        <_>
          <internalNodes>
            0 -1 10 3.5917684435844421e-03</internalNodes>
          <leafValues>
            -1.5426896512508392e-01 5.9312045574188232e-01</leafValues></_>
        <_>
          <internalNodes>
            0 -1 20 -1.7321220366284251e-04</internalNodes>
          <leafValues>
            -4.1733953356742859e-01 2.3347742855548859e-01</leafValues></_>
        <_>
          <internalNodes>
            0 -1 9 4.2812278843484819e-04</internalNodes>
          <leafValues>
            -1.6400790214538574e-01 6.6717267036437988e-01</leafValues></_>
        <_>
          <internalNodes>
            0 -1 36 -1.2502321973443031e-02</internalNodes>
          <leafValues>
            -7.9501467943191528e-01 1.5406221151351929e-01</leafValues></_></weakClassifiers></_>
    <!-- stage 3 -->
    <_>
      <maxWeakCount>20</maxWeakCount>
      <stageThreshold>-1.4499225616455078e+00</stageThreshold>
      <weakClassifiers>
        <_>
          <internalNodes>
            0 -1 1 1.3808135688304901e-01</internalNodes>
          <leafValues>
            -3.2554745674133301e-01 3.7937220931053162e-01</leafValues></_>
        <_>
          <internalNodes>
            0 -1 119 -3.5668246448040009e-02</internalNodes>
          <leafValues>
            5.9682297706604004e-01 -1.9007536768913269e-01</leafValues></_>
        <_>
          <internalNodes>
            0 -1 81 -2.9018344357609749e-03</internalNodes>
          <leafValues>
            7.1723365783691406e-01 -1.3226985931396484e-01</leafValues></_>
        <_>
          <internalNodes>
            0 -1 53 2.7529732324182987e-03</internalNodes>
          <leafValues>
            -1.3797086477279663e-01 7.3681735992431641e-01</leafValues></_>
        <_>
          <internalNodes>
            0 -1 53 -1.4791400171816349e-03</internalNodes>
          <leafValues>
            5.0718289613723755e-01 -2.2252009809017181e-01</leafValues></_>
        <_>
          <internalNodes>
            0 -1 11 1.5133703127503395e-03</internalNodes>
          <leafValues>
            -1.3279677927494049e-01 6.6603696346282959e-01</leafValues></_>
        <_>
          <internalNodes>
            0 -1 5 3.7644876283593476e-04</internalNodes>
          <leafValues>
            -1.5010653436183929e-01 5.8808547258377075e-01</leafValues></_>
        <_>
          <internalNodes>
            0 -1 35 -2.5220502167940140e-02</internalNodes>
          <leafValues>
            5.3824710845947266e-01 -1.5311534702777863e-01</leafValues></_>
        <_>
          <internalNodes>
            0 -1 75 -1.9289558986201882e-03</internalNodes>
          <leafValues>
            5.7913309335708618e-01 -1.7811721563339233e-01</leafValues></_>
        <_>
          <internalNodes>
            0 -1 75 1.6975234029814601e-03</internalNodes>
          <leafValues>
            -1.4750608801841736e-01 6.4223045110702515e-01</leafValues></_>
        <_>
          <internalNodes>
            0 -1 29 -2.2051490843296051e-02</internalNodes>
          <leafValues>
            -7.3172014951705933e-01 1.1721070110797882e-01</leafValues></_>
        <_>
          <internalNodes>
            0 -1 70 -4.0084626525640488e-03</internalNodes>
          <leafValues>
            7.9931086301803589e-01 -1.1870033293962479e-01</leafValues></_>
        <_>
          <internalNodes>
            0 -1 112 -7.8609370393678546e-04</internalNodes>
          <leafValues>
            6.8977105617523193e-01 -1.2609894573688507e-01</leafValues></_>
        <_>
          <internalNodes>
            0 -1 5 -9.2812662478536367e-04</internalNodes>
          <leafValues>
            7.9917013645172119e-01 -1.0906875133514404e-01</leafValues></_>
        <_>
          <internalNodes>
            0 -1 118 -1.3136142864823341e-02</internalNodes>
          <leafValues>
            3.5856345295906067e-01 -2.9557457566261292e-01</leafValues></_>
        <_>
          <internalNodes>
            0 -1 32 7.9697673209011555e-04</internalNodes>
          <leafValues>
            -1.3220916688442230e-01 8.7887358665466309e-01</leafValues></_>
        <_>
          <internalNodes>
            0 -1 65 -1.7932571470737457e-02</internalNodes>
          <leafValues>
            -8.9190739393234253e-01 1.2865974009037018e-01</leafValues></_>
        <_>
          <internalNodes>
            0 -1 68 2.4977200664579868e-03</internalNodes>
          <leafValues>
            -1.7601028084754944e-01 6.1797237396240234e-01</leafValues></_>
        <_>
          <internalNodes>
            0 -1 113 1.3416958972811699e-02</internalNodes>
          <leafValues>
            -2.7697184681892395e-01 3.4375920891761780e-01</leafValues></_>
        <_>
          <internalNodes>
            0 -1 82 3.6660544574260712e-03</internalNodes>
          <leafValues>
            -1.2462027370929718e-01 8.2239615917205811e-01</leafValues></_></weakClassifiers></_>
    <!-- stage 4 -->
    <_>
      <maxWeakCount>20</maxWeakCount>
      <stageThreshold>-1.1398923397064209e+00</stageThreshold>
      <weakClassifiers>
        <_>
          <internalNodes>
            0 -1 38 8.8460545521229506e-04</internalNodes>
          <leafValues>
            -3.8435938954353333e-01 3.5946622490882874e-01</leafValues></_>
        <_>
          <internalNodes>
            0 -1 94 -2.3450092412531376e-03</internalNodes>
          <leafValues>
            7.0435643196105957e-01 -1.4433465898036957e-01</leafValues></_>
        <_>
          <internalNodes>
            0 -1 78 1.4194427989423275e-02</internalNodes>
          <leafValues>
            1.7783093452453613e-01 -7.0837360620498657e-01</leafValues></_>
        <_>
          <internalNodes>
            0 -1 107 3.8703129393979907e-04</internalNodes>
          <leafValues>
            -2.2119499742984772e-01 7.4207496643066406e-01</leafValues></_>
        <_>
          <internalNodes>
            0 -1 46 5.1163695752620697e-03</internalNodes>
          <leafValues>
            -3.0964305996894836e-01 3.7716716527938843e-01</leafValues></_>
        <_>
          <internalNodes>
            0 -1 105 -5.4518692195415497e-04</internalNodes>
          <leafValues>
            7.9794955253601074e-01 -1.6411252319812775e-01</leafValues></_>
        <_>
          <internalNodes>
            0 -1 98 -1.2769378954544663e-03</internalNodes>
          <leafValues>
            5.4945838451385498e-01 -1.8222907185554504e-01</leafValues></_>
        <_>
          <internalNodes>
            0 -1 16 8.4871292114257812e-02</internalNodes>
          <leafValues>
            -1.6195470094680786e-01 5.7708287239074707e-01</leafValues></_>
        <_>
          <internalNodes>
            0 -1 99 2.4650481063872576e-03</internalNodes>
          <leafValues>
            -1.6648499667644501e-01 6.6312396526336670e-01</leafValues></_>
        <_>
          <internalNodes>
            0 -1 124 3.6495202220976353e-04</internalNodes>
          <leafValues>
            -1.2048059701919556e-01 6.6677284240722656e-01</leafValues></_>
        <_>
          <internalNodes>
            0 -1 52 -1.2698881328105927e-02</internalNodes>
          <leafValues>
            -6.7284029722213745e-01 1.6552026569843292e-01</leafValues></_>
        <_>
          <internalNodes>
            0 -1 7 1.1207202915102243e-03</internalNodes>
          <leafValues>
            -1.2135256081819534e-01 9.6895420551300049e-01</leafValues></_>
        <_>
          <internalNodes>
            0 -1 47 2.0713275298476219e-02</internalNodes>
          <leafValues>
            1.6529197990894318e-01 -7.4184632301330566e-01</leafValues></_>
        <_>
          <internalNodes>
            0 -1 117 7.3348032310605049e-04</internalNodes>
          <leafValues>
            -1.3376331329345703e-01 8.7437319755554199e-01</leafValues></_>
        <_>
          <internalNodes>
            0 -1 60 2.6459693908691406e-03</internalNodes>
          <leafValues>
            -1.2296783179044724e-01 6.6381978988647461e-01</leafValues></_>
        <_>
          <internalNodes>
            0 -1 21 -2.3446870036423206e-03</internalNodes>
          <leafValues>
            6.4735400676727295e-01 -1.3832268118858337e-01</leafValues></_>
        <_>
          <internalNodes>
            0 -1 28 -1.2430357746779919e-03</internalNodes>
          <leafValues>
            9.3265336751937866e-01 -1.0547073185443878e-01</leafValues></_>
        <_>
          <internalNodes>
            0 -1 55 -1.3212815974839032e-04</internalNodes>
          <leafValues>
            -3.6542639136314392e-01 2.7559769153594971e-01</leafValues></_>
        <_>
          <internalNodes>
            0 -1 26 -3.0639637261629105e-02</internalNodes>
          <leafValues>
            6.0913330316543579e-01 -1.6045711934566498e-01</leafValues></_>
        <_>
          <internalNodes>
            0 -1 41 2.4859674740582705e-03</internalNodes>
          <leafValues>
            1.6856375336647034e-01 -5.9039407968521118e-01</leafValues></_></weakClassifiers></_>
    <!-- stage 5 -->
    <_>
      <maxWeakCount>18</maxWeakCount>
      <stageThreshold>-1.2801681756973267e+00</stageThreshold>
      <weakClassifiers>
        <_>
          <internalNodes>
            0 -1 17 2.3463491350412369e-02</internalNodes>
          <leafValues>
            -3.4670487046241760e-01 4.0108892321586609e-01</leafValues></_>
        <_>
          <internalNodes>
            0 -1 121 -1.1835821904242039e-02</internalNodes>
          <leafValues>
            7.3815220594406128e-01 -1.6258880496025085e-01</leafValues></_>
        <_>
          <internalNodes>
            0 -1 94 -2.6715479325503111e-03</internalNodes>
          <leafValues>
            8.3297520875930786e-01 -1.2115907669067383e-01</leafValues></_>
        <_>
          <internalNodes>
            0 -1 106 5.0782214384526014e-04</internalNodes>
          <leafValues>
            -1.7570021748542786e-01 7.6918488740921021e-01</leafValues></_>
        <_>
          <internalNodes>
            0 -1 110 2.1530399098992348e-03</internalNodes>
          <leafValues>
            -9.9076151847839355e-02 8.1228852272033691e-01</leafValues></_>
        <_>
          <internalNodes>
            0 -1 103 -1.4403861714527011e-03</internalNodes>
          <leafValues>
            8.0404847860336304e-01 -1.2751334905624390e-01</leafValues></_>
        <_>
          <internalNodes>
            0 -1 74 -9.8695908673107624e-04</internalNodes>
          <leafValues>
            -3.8212734460830688e-01 2.9240050911903381e-01</leafValues></_>
        <_>
          <internalNodes>
            0 -1 115 -7.0942717138677835e-04</internalNodes>
          <leafValues>
            7.4030536413192749e-01 -1.3240125775337219e-01</leafValues></_>
        <_>
          <internalNodes>
            0 -1 89 -1.2803420424461365e-02</internalNodes>
          <leafValues>
            -6.3418793678283691e-01 1.8149666488170624e-01</leafValues></_>
        <_>
          <internalNodes>
            0 -1 109 -4.1358696762472391e-04</internalNodes>
          <leafValues>
            7.1090227365493774e-01 -1.7756244540214539e-01</leafValues></_>
        <_>
          <internalNodes>
            0 -1 0 5.5508017539978027e-02</internalNodes>
          <leafValues>
            -1.1510930955410004e-01 8.1916135549545288e-01</leafValues></_>
        <_>
          <internalNodes>
            0 -1 102 -3.9727361872792244e-03</internalNodes>
          <leafValues>
            3.2171070575714111e-01 -3.3429437875747681e-01</leafValues></_>
        <_>
          <internalNodes>
            0 -1 54 -1.6791969537734985e-03</internalNodes>
          <leafValues>
            6.4976203441619873e-01 -1.8980112671852112e-01</leafValues></_>
        <_>
          <internalNodes>
            0 -1 63 -2.3690704256296158e-02</internalNodes>
          <leafValues>
            -8.5106265544891357e-01 1.4780506491661072e-01</leafValues></_>
        <_>
          <internalNodes>
            0 -1 43 -2.9235410038381815e-03</internalNodes>
          <leafValues>
            -4.5791575312614441e-01 2.5104057788848877e-01</leafValues></_>
        <_>
          <internalNodes>
            0 -1 54 1.4819602947682142e-03</internalNodes>
          <leafValues>
            -2.3748926818370819e-01 5.7634484767913818e-01</leafValues></_>
        <_>
          <internalNodes>
            0 -1 39 5.6512095034122467e-02</internalNodes>
          <leafValues>
            1.9392035901546478e-01 -7.3654490709304810e-01</leafValues></_>
        <_>
          <internalNodes>
            0 -1 30 -2.5925838854163885e-03</internalNodes>
          <leafValues>
            7.5752276182174683e-01 -1.9014711678028107e-01</leafValues></_></weakClassifiers></_>
    <!-- stage 6 -->
    <_>
      <maxWeakCount>15</maxWeakCount>
      <stageThreshold>-1.1248759031295776e+00</stageThreshold>
      <weakClassifiers>
        <_>
          <internalNodes>
            0 -1 8 2.5479892268776894e-02</internalNodes>
          <leafValues>
            -3.6351531744003296e-01 4.5090562105178833e-01</leafValues></_>
        <_>
          <internalNodes>
            0 -1 80 8.6791524663567543e-03</internalNodes>
          <leafValues>
            -3.1170642375946045e-01 4.6932461857795715e-01</leafValues></_>
        <_>
          <internalNodes>
            0 -1 122 -3.0323330429382622e-04</internalNodes>
          <leafValues>
            -3.4966132044792175e-01 4.3697899580001831e-01</leafValues></_>
        <_>
          <internalNodes>
            0 -1 111 2.3473802139051259e-04</internalNodes>
          <leafValues>
            -1.8536710739135742e-01 7.5853580236434937e-01</leafValues></_>
        <_>
          <internalNodes>
            0 -1 25 1.6864361241459846e-03</internalNodes>
          <leafValues>
            -1.7887493968009949e-01 8.1820982694625854e-01</leafValues></_>
        <_>
          <internalNodes>
            0 -1 90 -2.4250801652669907e-03</internalNodes>
          <leafValues>
            9.4238567352294922e-01 -8.4504462778568268e-02</leafValues></_>
        <_>
          <internalNodes>
            0 -1 97 -2.5773402303457260e-03</internalNodes>
          <leafValues>
            8.2139718532562256e-01 -1.8129608035087585e-01</leafValues></_>
        <_>
          <internalNodes>
            0 -1 96 2.6842445367947221e-04</internalNodes>
          <leafValues>
            -2.6713559031486511e-01 5.5563545227050781e-01</leafValues></_>
        <_>
          <internalNodes>
            0 -1 83 -1.4986610040068626e-02</internalNodes>
          <leafValues>
            -6.5027225017547607e-01 3.2742136716842651e-01</leafValues></_>
        <_>
          <internalNodes>
            0 -1 104 3.4905178472399712e-04</internalNodes>
          <leafValues>
            -2.6672926545143127e-01 6.0558658838272095e-01</leafValues></_>
        <_>
          <internalNodes>
            0 -1 93 -1.8080703914165497e-02</internalNodes>
          <leafValues>
            -7.3676568269729614e-01 2.8982743620872498e-01</leafValues></_>
        <_>
          <internalNodes>
            0 -1 61 2.2840197198092937e-03</internalNodes>
          <leafValues>
            -2.4696876108646393e-01 7.9763424396514893e-01</leafValues></_>
        <_>
          <internalNodes>
            0 -1 125 1.2774205533787608e-03</internalNodes>
          <leafValues>
            -1.8664921820163727e-01 7.6643979549407959e-01</leafValues></_>
        <_>
          <internalNodes>
            0 -1 123 -1.6445493092760444e-03</internalNodes>
          <leafValues>
            6.8442380428314209e-01 -2.1027649939060211e-01</leafValues></_>
        <_>
          <internalNodes>
            0 -1 24 8.2157389260828495e-04</internalNodes>
          <leafValues>
            4.5832517743110657e-01 -3.5622376203536987e-01</leafValues></_></weakClassifiers></_>
    <!-- stage 7 -->
    <_>
      <maxWeakCount>12</maxWeakCount>
      <stageThreshold>-1.6277834177017212e+00</stageThreshold>
      <weakClassifiers>
        <_>
          <internalNodes>
            0 -1 108 -1.1602253653109074e-03</internalNodes>
          <leafValues>
            5.8422940969467163e-01 -3.0010384321212769e-01</leafValues></_>
        <_>
          <internalNodes>
            0 -1 18 2.3203645832836628e-03</internalNodes>
          <leafValues>
            -3.8773515820503235e-01 5.8311915397644043e-01</leafValues></_>
        <_>
          <internalNodes>
            0 -1 48 -1.2086195871233940e-02</internalNodes>
          <leafValues>
            -5.5866789817810059e-01 3.8669925928115845e-01</leafValues></_>
        <_>
          <internalNodes>
            0 -1 62 1.9059475744143128e-04</internalNodes>
          <leafValues>
            5.7801145315170288e-01 -3.9376014471054077e-01</leafValues></_>
        <_>
          <internalNodes>
            0 -1 31 4.3461902532726526e-04</internalNodes>
          <leafValues>
            4.5149478316307068e-01 -5.1910501718521118e-01</leafValues></_>
        <_>
          <internalNodes>
            0 -1 101 -5.1378733478486538e-03</internalNodes>
          <leafValues>
            6.9238018989562988e-01 -4.0507778525352478e-01</leafValues></_>
        <_>
          <internalNodes>
            0 -1 51 -1.2933690100908279e-02</internalNodes>
          <leafValues>
            -5.9741055965423584e-01 4.3050897121429443e-01</leafValues></_>
        <_>
          <internalNodes>
            0 -1 86 -5.6540884543210268e-04</internalNodes>
          <leafValues>
            9.1821283102035522e-01 -2.8735417127609253e-01</leafValues></_>
        <_>
          <internalNodes>
            0 -1 125 1.2774205533787608e-03</internalNodes>
          <leafValues>
            -2.2092087566852570e-01 9.3830913305282593e-01</leafValues></_>
        <_>
          <internalNodes>
            0 -1 100 2.5525709133944474e-05</internalNodes>
          <leafValues>
            -3.1008592247962952e-01 7.2019118070602417e-01</leafValues></_>
        <_>
          <internalNodes>
            0 -1 27 -4.5902520650997758e-04</internalNodes>
          <leafValues>
            -3.4552937746047974e-01 6.8266749382019043e-01</leafValues></_>
        <_>
          <internalNodes>
            0 -1 116 -2.5757299226825126e-05</internalNodes>
          <leafValues>
            6.6527765989303589e-01 -3.7840139865875244e-01</leafValues></_></weakClassifiers></_>
    <!-- stage 8 -->
    <_>
      <maxWeakCount>5</maxWeakCount>
      <stageThreshold>-1.7763320207595825e+00</stageThreshold>
      <weakClassifiers>
        <_>
          <internalNodes>
            0 -1 66 -6.3365437090396881e-03</internalNodes>
          <leafValues>
            -5.4738879203796387e-01 1.</leafValues></_>
        <_>
          <internalNodes>
            0 -1 33 -1.4202317688614130e-03</internalNodes>
          <leafValues>
            -5.2148312330245972e-01 8.4615647792816162e-01</leafValues></_>
        <_>
          <internalNodes>
            0 -1 44 -3.7145383656024933e-02</internalNodes>
          <leafValues>
            -8.3424216508865356e-01 6.8099325895309448e-01</leafValues></_>
        <_>
          <internalNodes>
            0 -1 56 2.8744449373334646e-03</internalNodes>
          <leafValues>
            8.1341856718063354e-01 -7.0415228605270386e-01</leafValues></_>
        <_>
          <internalNodes>
            0 -1 77 1.9049525260925293e-02</internalNodes>
          <leafValues>
            7.8598910570144653e-01 -6.8430113792419434e-01</leafValues></_></weakClassifiers></_>
    <!-- stage 9 -->
    <_>
      <maxWeakCount>4</maxWeakCount>
      <stageThreshold>-8.1365889310836792e-01</stageThreshold>
      <weakClassifiers>
        <_>
          <internalNodes>
            0 -1 59 1.7662931233644485e-02</internalNodes>
          <leafValues>
            1. -6.8776369094848633e-01</leafValues></_>
        <_>
          <internalNodes>
            0 -1 37 -1.2880866415798664e-03</internalNodes>
          <leafValues>
            -5.7978957891464233e-01 1.</leafValues></_>
        <_>
          <internalNodes>
            0 -1 64 5.8057971298694611e-02</internalNodes>
          <leafValues>
            1. -5.4610556364059448e-01</leafValues></_>
        <_>
          <internalNodes>
            0 -1 13 -1.2203454971313477e-02</internalNodes>
          <leafValues>
            -4.9810570478439331e-01 1.</leafValues></_></weakClassifiers></_></stages>
  <features>
    <_>
      <rects>
        <_>
          0 0 32 6 -1.</_>
        <_>
          0 3 32 3 2.</_></rects>
      <tilted>0</tilted></_>
    <_>
      <rects>
        <_>
          0 8 24 24 -1.</_>
        <_>
          8 16 8 8 9.</_></rects>
      <tilted>0</tilted></_>
    <_>
      <rects>
        <_>
          0 9 3 1 -1.</_>
        <_>
          1 9 1 1 3.</_></rects>
      <tilted>0</tilted></_>
    <_>
      <rects>
        <_>
          0 9 3 2 -1.</_>
        <_>
          1 9 1 2 3.</_></rects>
      <tilted>0</tilted></_>
    <_>
      <rects>
        <_>
          0 9 3 18 -1.</_>
        <_>
          1 9 1 18 3.</_></rects>
      <tilted>0</tilted></_>
    <_>
      <rects>
        <_>
          0 11 3 1 -1.</_>
        <_>
          1 11 1 1 3.</_></rects>
      <tilted>0</tilted></_>
    <_>
      <rects>
        <_>
          0 11 2 13 -1.</_>
        <_>
          1 11 1 13 2.</_></rects>
      <tilted>0</tilted></_>
    <_>
      <rects>
        <_>
          0 12 3 1 -1.</_>
        <_>
          1 12 1 1 3.</_></rects>
      <tilted>0</tilted></_>
    <_>
      <rects>
        <_>
          0 12 16 16 -1.</_>
        <_>
          8 12 8 16 2.</_></rects>
      <tilted>0</tilted></_>
    <_>
      <rects>
        <_>
          0 13 3 1 -1.</_>
        <_>
          1 13 1 1 3.</_></rects>
      <tilted>0</tilted></_>
    <_>
      <rects>
        <_>
          0 16 2 11 -1.</_>
        <_>
          1 16 1 11 2.</_></rects>
      <tilted>0</tilted></_>
    <_>
      <rects>
        <_>
          0 18 3 3 -1.</_>
        <_>
          1 18 1 3 3.</_></rects>
      <tilted>0</tilted></_>
    <_>
      <rects>
        <_>
          0 18 3 4 -1.</_>
        <_>
          1 18 1 4 3.</_></rects>
      <tilted>0</tilted></_>
    <_>
      <rects>
        <_>
          0 19 5 12 -1.</_>
        <_>
          0 23 5 4 3.</_></rects>
      <tilted>0</tilted></_>
    <_>
      <rects>
        <_>
          0 23 3 1 -1.</_>
        <_>
          1 23 1 1 3.</_></rects>
      <tilted>0</tilted></_>
    <_>
      <rects>
        <_>
          1 0 30 32 -1.</_>
        <_>
          1 8 30 16 2.</_></rects>
      <tilted>0</tilted></_>
    <_>
      <rects>
        <_>
          1 0 31 10 -1.</_>
        <_>
          1 5 31 5 2.</_></rects>
      <tilted>0</tilted></_>
    <_>
      <rects>
        <_>
          1 9 21 12 -1.</_>
        <_>
          8 13 7 4 9.</_></rects>
      <tilted>0</tilted></_>
    <_>
      <rects>
        <_>
          1 11 4 19 -1.</_>
        <_>
          3 11 2 19 2.</_></rects>
      <tilted>0</tilted></_>
    <_>
      <rects>
        <_>
          1 11 12 6 -1.</_>
        <_>
          7 11 6 6 2.</_></rects>
      <tilted>0</tilted></_>
    <_>
      <rects>
        <_>
          1 15 10 4 -1.</_>
        <_>
          6 15 5 4 2.</_></rects>
      <tilted>0</tilted></_>
    <_>
      <rects>
        <_>
          1 27 3 3 -1.</_>
        <_>
          2 28 1 1 9.</_></rects>
      <tilted>0</tilted></_>
    <_>
      <rects>
        <_>
          2 0 29 10 -1.</_>
        <_>
          2 5 29 5 2.</_></rects>
      <tilted>0</tilted></_>
    <_>
      <rects>
        <_>
          2 2 30 30 -1.</_>
        <_>
          12 12 10 10 9.</_></rects>
      <tilted>0</tilted></_>
    <_>
      <rects>
        <_>
          2 12 1 9 -1.</_>
        <_>
          2 15 1 3 3.</_></rects>
      <tilted>0</tilted></_>
    <_>
      <rects>
        <_>
          2 24 3 3 -1.</_>
        <_>
          3 25 1 1 9.</_></rects>
      <tilted>0</tilted></_>
    <_>
      <rects>
        <_>
          2 24 11 8 -1.</_>
        <_>
          2 28 11 4 2.</_></rects>
      <tilted>0</tilted></_>
    <_>
      <rects>
        <_>
          2 26 8 5 -1.</_>
        <_>
          6 26 4 5 2.</_></rects>
      <tilted>0</tilted></_>
    <_>
      <rects>
        <_>
          3 9 3 1 -1.</_>
        <_>
          4 9 1 1 3.</_></rects>
      <tilted>0</tilted></_>
    <_>
      <rects>
        <_>
          3 17 10 8 -1.</_>
        <_>
          3 17 5 4 2.</_>
        <_>
          8 21 5 4 2.</_></rects>
      <tilted>0</tilted></_>
    <_>
      <rects>
        <_>
          3 22 1 3 -1.</_>
        <_>
          2 23 1 1 3.</_></rects>
      <tilted>1</tilted></_>
    <_>
      <rects>
        <_>
          3 23 2 3 -1.</_>
        <_>
          4 23 1 3 2.</_></rects>
      <tilted>0</tilted></_>
    <_>
      <rects>
        <_>
          4 8 2 2 -1.</_>
        <_>
          4 8 1 1 2.</_>
        <_>
          5 9 1 1 2.</_></rects>
      <tilted>0</tilted></_>
    <_>
      <rects>
        <_>
          4 14 4 2 -1.</_>
        <_>
          4 14 4 1 2.</_></rects>
      <tilted>1</tilted></_>
    <_>
      <rects>
        <_>
          4 27 24 3 -1.</_>
        <_>
          4 28 24 1 3.</_></rects>
      <tilted>0</tilted></_>
    <_>
      <rects>
        <_>
          5 0 8 4 -1.</_>
        <_>
          5 0 4 4 2.</_></rects>
      <tilted>1</tilted></_>
    <_>
      <rects>
        <_>
          5 13 18 2 -1.</_>
        <_>
          14 13 9 2 2.</_></rects>
      <tilted>0</tilted></_>
    <_>
      <rects>
        <_>
          5 15 2 2 -1.</_>
        <_>
          5 15 2 1 2.</_></rects>
      <tilted>1</tilted></_>
    <_>
      <rects>
        <_>
          6 8 12 15 -1.</_>
        <_>
          10 13 4 5 9.</_></rects>
      <tilted>0</tilted></_>
    <_>
      <rects>
        <_>
          6 10 12 18 -1.</_>
        <_>
          10 10 4 18 3.</_></rects>
      <tilted>0</tilted></_>
    <_>
      <rects>
        <_>
          7 7 8 2 -1.</_>
        <_>
          7 7 4 2 2.</_></rects>
      <tilted>1</tilted></_>
    <_>
      <rects>
        <_>
          7 23 2 5 -1.</_>
        <_>
          7 23 1 5 2.</_></rects>
      <tilted>1</tilted></_>
    <_>
      <rects>
        <_>
          7 29 4 3 -1.</_>
        <_>
          7 30 4 1 3.</_></rects>
      <tilted>0</tilted></_>
    <_>
      <rects>
        <_>
          8 2 8 13 -1.</_>
        <_>
          10 2 4 13 2.</_></rects>
      <tilted>0</tilted></_>
    <_>
      <rects>
        <_>
          8 6 18 8 -1.</_>
        <_>
          8 6 9 4 2.</_>
        <_>
          17 10 9 4 2.</_></rects>
      <tilted>0</tilted></_>
    <_>
      <rects>
        <_>
          8 13 11 8 -1.</_>
        <_>
          8 13 11 4 2.</_></rects>
      <tilted>1</tilted></_>
    <_>
      <rects>
        <_>
          8 18 4 8 -1.</_>
        <_>
          8 18 4 4 2.</_></rects>
      <tilted>1</tilted></_>
    <_>
      <rects>
        <_>
          9 12 12 4 -1.</_>
        <_>
          13 12 4 4 3.</_></rects>
      <tilted>0</tilted></_>
    <_>
      <rects>
        <_>
          9 29 12 3 -1.</_>
        <_>
          15 29 6 3 2.</_></rects>
      <tilted>0</tilted></_>
    <_>
      <rects>
        <_>
          10 4 22 24 -1.</_>
        <_>
          21 4 11 24 2.</_></rects>
      <tilted>0</tilted></_>
    <_>
      <rects>
        <_>
          10 8 3 3 -1.</_>
        <_>
          11 9 1 1 9.</_></rects>
      <tilted>0</tilted></_>
    <_>
      <rects>
        <_>
          10 8 12 18 -1.</_>
        <_>
          14 8 4 18 3.</_></rects>
      <tilted>0</tilted></_>
    <_>
      <rects>
        <_>
          10 12 12 5 -1.</_>
        <_>
          14 12 4 5 3.</_></rects>
      <tilted>0</tilted></_>
    <_>
      <rects>
        <_>
          10 13 3 3 -1.</_>
        <_>
          11 14 1 1 9.</_></rects>
      <tilted>0</tilted></_>
    <_>
      <rects>
        <_>
          10 16 3 3 -1.</_>
        <_>
          11 17 1 1 9.</_></rects>
      <tilted>0</tilted></_>
    <_>
      <rects>
        <_>
          10 17 6 4 -1.</_>
        <_>
          10 17 6 2 2.</_></rects>
      <tilted>1</tilted></_>
    <_>
      <rects>
        <_>
          10 22 22 2 -1.</_>
        <_>
          10 22 11 1 2.</_>
        <_>
          21 23 11 1 2.</_></rects>
      <tilted>0</tilted></_>
    <_>
      <rects>
        <_>
          10 28 1 3 -1.</_>
        <_>
          10 29 1 1 3.</_></rects>
      <tilted>0</tilted></_>
    <_>
      <rects>
        <_>
          11 8 1 3 -1.</_>
        <_>
          11 9 1 1 3.</_></rects>
      <tilted>0</tilted></_>
    <_>
      <rects>
        <_>
          11 9 12 9 -1.</_>
        <_>
          14 9 6 9 2.</_></rects>
      <tilted>0</tilted></_>
    <_>
      <rects>
        <_>
          11 10 3 3 -1.</_>
        <_>
          12 11 1 1 9.</_></rects>
      <tilted>0</tilted></_>
    <_>
      <rects>
        <_>
          11 14 3 3 -1.</_>
        <_>
          12 15 1 1 9.</_></rects>
      <tilted>0</tilted></_>
    <_>
      <rects>
        <_>
          12 2 6 2 -1.</_>
        <_>
          12 2 3 1 2.</_>
        <_>
          15 3 3 1 2.</_></rects>
      <tilted>0</tilted></_>
    <_>
      <rects>
        <_>
          12 3 6 21 -1.</_>
        <_>
          15 3 3 21 2.</_></rects>
      <tilted>0</tilted></_>
    <_>
      <rects>
        <_>
          12 4 9 18 -1.</_>
        <_>
          12 10 9 6 3.</_></rects>
      <tilted>0</tilted></_>
    <_>
      <rects>
        <_>
          12 11 8 10 -1.</_>
        <_>
          12 11 4 5 2.</_>
        <_>
          16 16 4 5 2.</_></rects>
      <tilted>0</tilted></_>
    <_>
      <rects>
        <_>
          12 15 9 12 -1.</_>
        <_>
          15 19 3 4 9.</_></rects>
      <tilted>0</tilted></_>
    <_>
      <rects>
        <_>
          12 15 16 10 -1.</_>
        <_>
          16 15 8 10 2.</_></rects>
      <tilted>0</tilted></_>
    <_>
      <rects>
        <_>
          12 16 3 3 -1.</_>
        <_>
          13 17 1 1 9.</_></rects>
      <tilted>0</tilted></_>
    <_>
      <rects>
        <_>
          12 24 1 3 -1.</_>
        <_>
          12 25 1 1 3.</_></rects>
      <tilted>0</tilted></_>
    <_>
      <rects>
        <_>
          12 29 3 3 -1.</_>
        <_>
          13 30 1 1 9.</_></rects>
      <tilted>0</tilted></_>
    <_>
      <rects>
        <_>
          12 29 2 3 -1.</_>
        <_>
          12 30 2 1 3.</_></rects>
      <tilted>0</tilted></_>
    <_>
      <rects>
        <_>
          13 8 1 3 -1.</_>
        <_>
          13 9 1 1 3.</_></rects>
      <tilted>0</tilted></_>
    <_>
      <rects>
        <_>
          13 14 3 3 -1.</_>
        <_>
          14 15 1 1 9.</_></rects>
      <tilted>0</tilted></_>
    <_>
      <rects>
        <_>
          13 15 7 12 -1.</_>
        <_>
          13 19 7 4 3.</_></rects>
      <tilted>0</tilted></_>
    <_>
      <rects>
        <_>
          13 16 3 3 -1.</_>
        <_>
          14 17 1 1 9.</_></rects>
      <tilted>0</tilted></_>
    <_>
      <rects>
        <_>
          13 19 3 3 -1.</_>
        <_>
          14 20 1 1 9.</_></rects>
      <tilted>0</tilted></_>
    <_>
      <rects>
        <_>
          14 4 9 14 -1.</_>
        <_>
          17 4 3 14 3.</_></rects>
      <tilted>0</tilted></_>
    <_>
      <rects>
        <_>
          14 14 8 10 -1.</_>
        <_>
          14 14 4 5 2.</_>
        <_>
          18 19 4 5 2.</_></rects>
      <tilted>0</tilted></_>
    <_>
      <rects>
        <_>
          16 0 1 3 -1.</_>
        <_>
          16 1 1 1 3.</_></rects>
      <tilted>0</tilted></_>
    <_>
      <rects>
        <_>
          16 7 16 20 -1.</_>
        <_>
          20 7 8 20 2.</_></rects>
      <tilted>0</tilted></_>
    <_>
      <rects>
        <_>
          16 8 3 3 -1.</_>
        <_>
          17 9 1 1 9.</_></rects>
      <tilted>0</tilted></_>
    <_>
      <rects>
        <_>
          16 9 3 3 -1.</_>
        <_>
          17 10 1 1 9.</_></rects>
      <tilted>0</tilted></_>
    <_>
      <rects>
        <_>
          16 10 10 9 -1.</_>
        <_>
          13 13 10 3 3.</_></rects>
      <tilted>1</tilted></_>
    <_>
      <rects>
        <_>
          16 18 3 3 -1.</_>
        <_>
          17 19 1 1 9.</_></rects>
      <tilted>0</tilted></_>
    <_>
      <rects>
        <_>
          16 19 3 3 -1.</_>
        <_>
          17 20 1 1 9.</_></rects>
      <tilted>0</tilted></_>
    <_>
      <rects>
        <_>
          16 23 3 1 -1.</_>
        <_>
          17 24 1 1 3.</_></rects>
      <tilted>1</tilted></_>
    <_>
      <rects>
        <_>
          16 26 1 3 -1.</_>
        <_>
          16 27 1 1 3.</_></rects>
      <tilted>0</tilted></_>
    <_>
      <rects>
        <_>
          17 8 1 3 -1.</_>
        <_>
          17 9 1 1 3.</_></rects>
      <tilted>0</tilted></_>
    <_>
      <rects>
        <_>
          17 9 9 6 -1.</_>
        <_>
          15 11 9 2 3.</_></rects>
      <tilted>1</tilted></_>
    <_>
      <rects>
        <_>
          17 18 3 3 -1.</_>
        <_>
          18 19 1 1 9.</_></rects>
      <tilted>0</tilted></_>
    <_>
      <rects>
        <_>
          17 29 4 3 -1.</_>
        <_>
          17 30 4 1 3.</_></rects>
      <tilted>0</tilted></_>
    <_>
      <rects>
        <_>
          18 8 1 3 -1.</_>
        <_>
          18 9 1 1 3.</_></rects>
      <tilted>0</tilted></_>
    <_>
      <rects>
        <_>
          18 9 8 10 -1.</_>
        <_>
          18 9 4 5 2.</_>
        <_>
          22 14 4 5 2.</_></rects>
      <tilted>0</tilted></_>
    <_>
      <rects>
        <_>
          18 13 3 3 -1.</_>
        <_>
          19 14 1 1 9.</_></rects>
      <tilted>0</tilted></_>
    <_>
      <rects>
        <_>
          18 13 14 11 -1.</_>
        <_>
          25 13 7 11 2.</_></rects>
      <tilted>0</tilted></_>
    <_>
      <rects>
        <_>
          18 15 3 2 -1.</_>
        <_>
          18 16 3 1 2.</_></rects>
      <tilted>0</tilted></_>
    <_>
      <rects>
        <_>
          18 16 3 3 -1.</_>
        <_>
          19 17 1 1 9.</_></rects>
      <tilted>0</tilted></_>
    <_>
      <rects>
        <_>
          18 18 3 3 -1.</_>
        <_>
          19 19 1 1 9.</_></rects>
      <tilted>0</tilted></_>
    <_>
      <rects>
        <_>
          18 19 3 3 -1.</_>
        <_>
          19 20 1 1 9.</_></rects>
      <tilted>0</tilted></_>
    <_>
      <rects>
        <_>
          18 25 2 2 -1.</_>
        <_>
          18 25 1 1 2.</_>
        <_>
          19 26 1 1 2.</_></rects>
      <tilted>0</tilted></_>
    <_>
      <rects>
        <_>
          19 2 12 4 -1.</_>
        <_>
          25 2 6 4 2.</_></rects>
      <tilted>0</tilted></_>
    <_>
      <rects>
        <_>
          19 3 8 6 -1.</_>
        <_>
          19 3 8 3 2.</_></rects>
      <tilted>1</tilted></_>
    <_>
      <rects>
        <_>
          19 11 1 3 -1.</_>
        <_>
          18 12 1 1 3.</_></rects>
      <tilted>1</tilted></_>
    <_>
      <rects>
        <_>
          19 13 1 2 -1.</_>
        <_>
          19 14 1 1 2.</_></rects>
      <tilted>0</tilted></_>
    <_>
      <rects>
        <_>
          19 16 1 3 -1.</_>
        <_>
          19 17 1 1 3.</_></rects>
      <tilted>0</tilted></_>
    <_>
      <rects>
        <_>
          20 13 1 3 -1.</_>
        <_>
          20 14 1 1 3.</_></rects>
      <tilted>0</tilted></_>
    <_>
      <rects>
        <_>
          20 14 2 2 -1.</_>
        <_>
          20 14 1 1 2.</_>
        <_>
          21 15 1 1 2.</_></rects>
      <tilted>0</tilted></_>
    <_>
      <rects>
        <_>
          20 17 8 3 -1.</_>
        <_>
          24 17 4 3 2.</_></rects>
      <tilted>0</tilted></_>
    <_>
      <rects>
        <_>
          21 13 1 3 -1.</_>
        <_>
          21 14 1 1 3.</_></rects>
      <tilted>0</tilted></_>
    <_>
      <rects>
        <_>
          21 18 3 3 -1.</_>
        <_>
          22 19 1 1 9.</_></rects>
      <tilted>0</tilted></_>
    <_>
      <rects>
        <_>
          21 19 3 1 -1.</_>
        <_>
          22 19 1 1 3.</_></rects>
      <tilted>0</tilted></_>
    <_>
      <rects>
        <_>
          21 25 1 3 -1.</_>
        <_>
          21 26 1 1 3.</_></rects>
      <tilted>0</tilted></_>
    <_>
      <rects>
        <_>
          22 19 10 3 -1.</_>
        <_>
          22 19 5 3 2.</_></rects>
      <tilted>1</tilted></_>
    <_>
      <rects>
        <_>
          23 19 9 12 -1.</_>
        <_>
          23 25 9 6 2.</_></rects>
      <tilted>0</tilted></_>
    <_>
      <rects>
        <_>
          24 15 3 2 -1.</_>
        <_>
          25 15 1 2 3.</_></rects>
      <tilted>0</tilted></_>
    <_>
      <rects>
        <_>
          24 16 2 1 -1.</_>
        <_>
          25 16 1 1 2.</_></rects>
      <tilted>0</tilted></_>
    <_>
      <rects>
        <_>
          26 0 1 3 -1.</_>
        <_>
          26 1 1 1 3.</_></rects>
      <tilted>0</tilted></_>
    <_>
      <rects>
        <_>
          26 0 6 10 -1.</_>
        <_>
          26 0 6 5 2.</_></rects>
      <tilted>1</tilted></_>
    <_>
      <rects>
        <_>
          26 3 6 28 -1.</_>
        <_>
          29 3 3 28 2.</_></rects>
      <tilted>0</tilted></_>
    <_>
      <rects>
        <_>
          28 2 4 27 -1.</_>
        <_>
          30 2 2 27 2.</_></rects>
      <tilted>0</tilted></_>
    <_>
      <rects>
        <_>
          28 5 4 10 -1.</_>
        <_>
          30 5 2 10 2.</_></rects>
      <tilted>0</tilted></_>
    <_>
      <rects>
        <_>
          28 7 4 2 -1.</_>
        <_>
          29 8 2 2 2.</_></rects>
      <tilted>1</tilted></_>
    <_>
      <rects>
        <_>
          29 0 3 24 -1.</_>
        <_>
          30 0 1 24 3.</_></rects>
      <tilted>0</tilted></_>
    <_>
      <rects>
        <_>
          29 13 3 1 -1.</_>
        <_>
          30 13 1 1 3.</_></rects>
      <tilted>0</tilted></_>
    <_>
      <rects>
        <_>
          29 13 3 7 -1.</_>
        <_>
          30 13 1 7 3.</_></rects>
      <tilted>0</tilted></_>
    <_>
      <rects>
        <_>
          29 25 3 1 -1.</_>
        <_>
          30 25 1 1 3.</_></rects>
      <tilted>0</tilted></_></features></cascade>
</opencv_storage>
